{"learner":{"attributes":{"scikit_learn":"{\"_estimator_type\": \"classifier\"}"},"feature_names":[],"feature_types":[],"gradient_booster":{"model":{"gbtree_model_param":{"num_parallel_tree":"1","num_trees":"400"},"iteration_indptr":[0,4,8,12,16,20,24,28,32,36,40,44,48,52,56,60,64,68,72,76,80,84,88,92,96,100,104,108,112,116,120,124,128,132,136,140,144,148,152,156,160,164,168,172,176,180,184,188,192,196,200,204,208,212,216,220,224,228,232,236,240,244,248,252,256,260,264,268,272,276,280,284,288,292,296,300,304,308,312,316,320,324,328,332,336,340,344,348,352,356,360,364,368,372,376,380,384,388,392,396,400],"tree_info":[0,1,2,3,0,1,2,3,0,1,2,3,0,1,2,3,0,1,2,3,0,1,2,3,0,1,2,3,0,1,2,3,0,1,2,3,0,1,2,3,0,1,2,3,0,1,2,3,0,1,2,3,0,1,2,3,0,1,2,3,0,1,2,3,0,1,2,3,0,1,2,3,0,1,2,3,0,1,2,3,0,1,2,3,0,1,2,3,0,1,2,3,0,1,2,3,0,1,2,3,0,1,2,3,0,1,2,3,0,1,2,3,0,1,2,3,0,1,2,3,0,1,2,3,0,1,2,3,0,1,2,3,0,1,2,3,0,1,2,3,0,1,2,3,0,1,2,3,0,1,2,3,0,1,2,3,0,1,2,3,0,1,2,3,0,1,2,3,0,1,2,3,0,1,2,3,0,1,2,3,0,1,2,3,0,1,2,3,0,1,2,3,0,1,2,3,0,1,2,3,0,1,2,3,0,1,2,3,0,1,2,3,0,1,2,3,0,1,2,3,0,1,2,3,0,1,2,3,0,1,2,3,0,1,2,3,0,1,2,3,0,1,2,3,0,1,2,3,0,1,2,3,0,1,2,3,0,1,2,3,0,1,2,3,0,1,2,3,0,1,2,3,0,1,2,3,0,1,2,3,0,1,2,3,0,1,2,3,0,1,2,3,0,1,2,3,0,1,2,3,0,1,2,3,0,1,2,3,0,1,2,3,0,1,2,3,0,1,2,3,0,1,2,3,0,1,2,3,0,1,2,3,0,1,2,3,0,1,2,3,0,1,2,3,0,1,2,3,0,1,2,3,0,1,2,3,0,1,2,3,0,1,2,3,0,1,2,3,0,1,2,3,0,1,2,3,0,1,2,3,0,1,2,3,0,1,2,3,0,1,2,3,0,1,2,3,0,1,2,3],"trees":[{"base_weights":[-3.536217E-1,-6.523171E-1,1.994384E0,-1.9998182E-1,1.4222781E-1,5.995765E-1,1.0985916E0,1.1360634E-1,6.506024E-1,-1.3846155E-1,5.09434E-1,1.5761286E-1,-1.5813954E-1,9.677419E-1,-2.0689656E-1,1.0655022E-1,4.9411765E-1,5E-1,-2.617801E-1,3.9574468E-1,-2.6086958E-2,-1.20000005E-1,3.529412E-2,-9.818182E-2,4.544583E-2,1.9720282E-1,-8.5714296E-2,-1.0588236E-1,2.8695655E-1,-1.5789475E-1,-0E0],"categories":[],"categories_nodes":[],"categories_segments":[],"categories_sizes":[],"default_left":[0,0,0,0,0,0,0,0,0,0,0,0,0,0,0,0,0,0,0,0,0,0,0,0,0,0,0,0,0,0,0],"id":0,"left_children":[1,3,5,-1,7,-1,9,11,13,-1,-1,15,17,19,21,23,25,27,29,-1,-1,-1,-1,-1,-1,-1,-1,-1,-1,-1,-1],"loss_changes":[8.852281E3,1.2721289E2,3.1694336E0,0E0,2.8161669E0,0E0,9.084814E0,2.2880874E0,3.0216703E0,0E0,0E0,2.7545953E0,1.9640325E0,2.9870782E0,2.7423936E-1,2.8396869E0,2.892684E0,1.8951406E0,1.6533481E0,0E0,0E0,0E0,0E0,0E0,0E0,0E0,0E0,0E0,0E0,0E0,0E0],"parents":[2147483647,0,0,1,1,2,2,4,4,6,6,7,7,8,8,11,11,12,12,13,13,14,14,15,15,16,16,17,17,18,18],"right_children":[2,4,6,-1,8,-1,10,12,14,-1,-1,16,18,20,22,24,26,28,30,-1,-1,-1,-1,-1,-1,-1,-1,-1,-1,-1,-1],"split_conditions":[7.03E2,7.01E2,7.75E2,-1.9998182E-1,4E0,5.995765E-1,7.77E2,1E0,1.2E1,-1.3846155E-1,5.09434E-1,1E0,1.25E4,1E0,9E0,1.4E4,7E1,1E0,3.5E1,3.9574468E-1,-2.6086958E-2,-1.20000005E-1,3.529412E-2,-9.818182E-2,4.544583E-2,1.9720282E-1,-8.5714296E-2,-1.0588236E-1,2.8695655E-1,-1.5789475E-1,-0E0],"split_indices":[26,26,26,0,18,0,26,43,9,0,0,22,20,24,0,20,5,8,19,0,0,0,0,0,0,0,0,0,0,0,0],"split_type":[0,0,0,0,0,0,0,0,0,0,0,0,0,0,0,0,0,0,0,0,0,0,0,0,0,0,0,0,0,0,0],"sum_hessian":[1.2619125E4,1.1195625E4,1.4235E3,1.0998E4,1.97625E2,1.415625E3,7.875E0,1.8825E2,9.375E0,2.25E0,5.625E0,1.62375E2,2.5875E1,6.75E0,2.625E0,1.42125E2,2.025E1,3E0,2.2875E1,4.875E0,1.875E0,1.5E0,1.125E0,1.275E1,1.29375E2,1.6875E1,3.375E0,1.125E0,1.875E0,1.0875E1,1.2E1],"tree_param":{"num_deleted":"0","num_feature":"47","num_nodes":"31","size_leaf_vector":"1"}},{"base_weights":[9.467616E-1,-1.9994055E-1,1.5328113E0,5.9992146E-1,-1.9987673E-1],"categories":[],"categories_nodes":[],"categories_segments":[],"categories_sizes":[],"default_left":[0,0,0,0,0],"id":1,"left_children":[1,-1,3,-1,-1],"loss_changes":[1.1932504E4,0E0,9.506967E3,0E0,0E0],"parents":[2147483647,0,0,2,2],"right_children":[2,-1,4,-1,-1],"split_conditions":[6.69E2,-1.9994055E-1,7.01E2,5.9992146E-1,-1.9987673E-1],"split_indices":[26,0,26,0,0],"split_type":[0,0,0,0,0],"sum_hessian":[1.2619125E4,3.362625E3,9.2565E3,7.635375E3,1.621125E3],"tree_param":{"num_deleted":"0","num_feature":"47","num_nodes":"5","size_leaf_vector":"1"}},{"base_weights":[-2.6138806E-1,7.430228E-1,-6.26303E-1,-6.656159E-1,5.9966266E-1,-1.9997382E-1,-4.3631038E-1,3.529412E-2,-1.9987382E-1,1.1843927E0,-6.6198665E-1,1.1969504E0,-2.6086958E-2,-1.9985883E-1,8.450704E-2,1.2375613E0,7.612903E-1,4.1538465E-1,-1.6981132E-1,3.823213E-1,2.4179105E-1,3E-1,-8.5714296E-2],"categories":[],"categories_nodes":[],"categories_segments":[],"categories_sizes":[],"default_left":[0,0,0,0,0,0,0,0,0,0,0,0,0,0,0,0,0,0,0,0,0,0,0],"id":2,"left_children":[1,3,5,7,-1,-1,9,-1,-1,11,13,15,-1,-1,17,19,21,-1,-1,-1,-1,-1,-1],"loss_changes":[4.626051E3,5.9517266E3,7.0549805E1,8.612671E-1,0E0,0E0,5.940831E2,0E0,0E0,3.2751465E0,4.5324707E0,2.5388794E0,0E0,0E0,8.2900305E0,1.8092346E0,5.128111E0,0E0,0E0,0E0,0E0,0E0,0E0],"parents":[2147483647,0,0,1,1,2,2,3,3,6,6,9,9,10,10,11,11,14,14,15,15,16,16],"right_children":[2,4,6,8,-1,-1,10,-1,-1,12,14,16,-1,-1,18,20,22,-1,-1,-1,-1,-1,-1],"split_conditions":[6.69E2,6.59E2,7.01E2,5.09E2,5.9966266E-1,-1.9997382E-1,7.03E2,3.529412E-2,-1.9987382E-1,3.6E1,7.75E2,1E1,-2.6086958E-2,-1.9985883E-1,7.77E2,1E0,4.8E1,4.1538465E-1,-1.6981132E-1,3.823213E-1,2.4179105E-1,3E-1,-8.5714296E-2],"split_indices":[26,26,26,26,0,0,26,0,0,9,26,17,0,0,26,41,19,0,0,0,0,0,0],"split_type":[0,0,0,0,0,0,0,0,0,0,0,0,0,0,0,0,0,0,0,0,0,0,0],"sum_hessian":[1.2619125E4,3.362625E3,9.2565E3,1.585125E3,1.7775E3,7.635375E3,1.621125E3,1.125E0,1.584E3,1.97625E2,1.4235E3,1.9575E2,1.875E0,1.415625E3,7.875E0,1.77375E2,1.8375E1,2.25E0,5.625E0,1.61625E2,1.575E1,1.5E1,3.375E0],"tree_param":{"num_deleted":"0","num_feature":"47","num_nodes":"23","size_leaf_vector":"1"}},{"base_weights":[-3.3175185E-1,1.9981086E0,-1.9998188E-1,1.7647061E-1,5.996215E-1],"categories":[],"categories_nodes":[],"categories_segments":[],"categories_sizes":[],"default_left":[0,0,0,0,0],"id":3,"left_children":[1,3,-1,-1,-1],"loss_changes":[9.847101E3,2.319336E-1,0E0,0E0,0E0],"parents":[2147483647,0,0,1,1],"right_children":[2,4,-1,-1,-1],"split_conditions":[6.59E2,5.09E2,-1.9998188E-1,1.7647061E-1,5.996215E-1],"split_indices":[26,26,0,0,0],"split_type":[0,0,0,0,0],"sum_hessian":[1.2619125E4,1.585125E3,1.1034E4,1.125E0,1.584E3],"tree_param":{"num_deleted":"0","num_feature":"47","num_nodes":"5","size_leaf_vector":"1"}},{"base_weights":[-3.0643725E-1,-6.021855E-1,1.171999E0,-1.8548162E-1,1.2952517E-1,3.52112E-1,7.4969375E-1,1.532103E-1,-3.1677616E-1,-1.2835425E-1,3.2811987E-1,1.7236045E-1,-3.2226604E-1,-4.870388E-1,1.6705632E-1,1.4706723E-1,1.0308226E0,-1.5892333E-1,9.815814E-3,3.426478E-2,-1.7544092E-1,-1.1250262E-2,6.69609E-2,3.619507E-2,3.765779E-1,1.7500955E-1,-1.2780347E-1],"categories":[],"categories_nodes":[],"categories_segments":[],"categories_sizes":[],"default_left":[0,0,0,0,0,0,0,0,0,0,0,0,0,0,0,0,0,0,0,0,0,0,0,0,0,0,0],"id":4,"left_children":[1,3,5,-1,7,-1,9,11,13,-1,-1,15,17,19,-1,21,23,-1,25,-1,-1,-1,-1,-1,-1,-1,-1],"loss_changes":[4.8685117E3,1.0928589E2,4.584961E-1,0E0,2.1670072E0,0E0,4.617865E0,1.7945418E0,1.8219999E0,0E0,0E0,3.8488836E0,5.386693E-1,6.110308E-1,0E0,2.5396671E0,8.917122E-1,0E0,1.2381756E0,0E0,0E0,0E0,0E0,0E0,0E0,0E0,0E0],"parents":[2147483647,0,0,1,1,2,2,4,4,6,6,7,7,8,8,11,11,12,12,13,13,15,15,16,16,18,18],"right_children":[2,4,6,-1,8,-1,10,12,14,-1,-1,16,18,20,-1,22,24,-1,26,-1,-1,-1,-1,-1,-1,-1,-1],"split_conditions":[7.03E2,7.01E2,7.75E2,-1.8548162E-1,4E0,3.52112E-1,7.77E2,1.664E3,1E0,-1.2835425E-1,3.2811987E-1,7.1E1,1.02E2,4.8E-2,1.6705632E-1,1E0,1E0,-1.5892333E-1,2.013E3,3.426478E-2,-1.7544092E-1,-1.1250262E-2,6.69609E-2,3.619507E-2,3.765779E-1,1.7500955E-1,-1.2780347E-1],"split_indices":[26,26,26,0,32,0,26,5,41,0,0,4,3,29,0,1,46,0,5,0,0,0,0,0,0,0,0],"split_type":[0,0,0,0,0,0,0,0,0,0,0,0,0,0,0,0,0,0,0,0,0,0,0,0,0,0,0],"sum_hessian":[1.1131906E4,9.276764E3,1.8551427E3,9.0773545E3,1.994099E2,1.845899E3,9.243662E0,1.8998418E2,9.425715E0,2.0349717E0,7.20869E0,1.832415E2,6.742685E0,8.258684E0,1.1670308E0,1.7913489E2,4.1066084E0,3.7835643E0,2.9591205E0,1.131518E0,7.1271663E0,5.2462605E1,1.2667229E2,1.1164744E0,2.9901338E0,1.131518E0,1.8276024E0],"tree_param":{"num_deleted":"0","num_feature":"47","num_nodes":"27","size_leaf_vector":"1"}},{"base_weights":[6.4940786E-1,-1.8544139E-1,9.607844E-1,3.5218278E-1,-1.8561673E-1],"categories":[],"categories_nodes":[],"categories_segments":[],"categories_sizes":[],"default_left":[0,0,0,0,0],"id":5,"left_children":[1,-1,3,-1,-1],"loss_changes":[5.5564985E3,0E0,3.8056553E3,0E0,0E0],"parents":[2147483647,0,0,2,2],"right_children":[2,-1,4,-1,-1],"split_conditions":[6.69E2,-1.8544139E-1,7.01E2,3.5218278E-1,-1.8561673E-1],"split_indices":[26,0,26,0,0],"split_type":[0,0,0,0,0],"sum_hessian":[1.4075844E4,2.7756785E3,1.1300165E4,9.956737E3,1.3434283E3],"tree_param":{"num_deleted":"0","num_feature":"47","num_nodes":"5","size_leaf_vector":"1"}},{"base_weights":[-2.2223929E-1,5.274477E-1,-5.745965E-1,-6.1718684E-1,3.5212082E-1,-1.8547107E-1,-3.798913E-1,2.7041847E-2,-1.8536758E-1,7.6920074E-1,-6.1322355E-1,7.769329E-1,-3.374304E-2,-1.8535154E-1,7.9211965E-2,7.9676497E-1,3.5429078E-1,2.9399258E-1,-1.5621278E-1,2.0388381E-1,2.6372352E-1,3.125535E-1,-1.0118117E-1],"categories":[],"categories_nodes":[],"categories_segments":[],"categories_sizes":[],"default_left":[0,0,0,0,0,0,0,0,0,0,0,0,0,0,0,0,0,0,0,0,0,0,0],"id":6,"left_children":[1,3,5,7,-1,-1,9,-1,-1,11,13,15,-1,-1,17,19,21,-1,-1,-1,-1,-1,-1],"loss_changes":[2.9968994E3,2.6842444E3,6.5340576E1,7.0880127E-1,0E0,0E0,3.8003165E2,0E0,0E0,1.7193146E0,3.8108826E0,1.7078094E0,0E0,0E0,5.201091E0,1.5817719E0,6.267558E0,0E0,0E0,0E0,0E0,0E0,0E0],"parents":[2147483647,0,0,1,1,2,2,3,3,6,6,9,9,10,10,11,11,14,14,15,15,16,16],"right_children":[2,4,6,8,-1,-1,10,-1,-1,12,14,16,-1,-1,18,20,22,-1,-1,-1,-1,-1,-1],"split_conditions":[6.69E2,6.59E2,7.01E2,5.09E2,3.5212082E-1,-1.8547107E-1,7.03E2,2.7041847E-2,-1.8536758E-1,3.6E1,7.75E2,1.56E2,-3.374304E-2,-1.8535154E-1,7.77E2,3E0,7E0,2.9399258E-1,-1.5621278E-1,2.0388381E-1,2.6372352E-1,3.125535E-1,-1.0118117E-1],"split_indices":[26,26,26,26,0,0,26,0,0,9,26,3,0,0,26,17,17,0,0,0,0,0,0],"split_type":[0,0,0,0,0,0,0,0,0,0,0,0,0,0,0,0,0,0,0,0,0,0,0],"sum_hessian":[1.1342971E4,3.6265356E3,7.716435E3,1.30872E3,2.3178157E3,6.301802E3,1.4146333E3,1.1768515E0,1.3075432E3,2.3838101E2,1.1762522E3,2.364264E2,1.9546134E0,1.1685718E3,7.6804624E0,2.2498402E2,1.1442376E1,2.8171268E0,4.8633356E0,9.666389E1,1.2832014E2,5.48382E0,5.9585567E0],"tree_param":{"num_deleted":"0","num_feature":"47","num_nodes":"23","size_leaf_vector":"1"}},{"base_weights":[-2.870306E-1,3.5205573E-1,-1.855174E-1],"categories":[],"categories_nodes":[],"categories_segments":[],"categories_sizes":[],"default_left":[0,0,0],"id":7,"left_children":[1,-1,-1],"loss_changes":[5.411492E3,0E0,0E0],"parents":[2147483647,0,0],"right_children":[2,-1,-1],"split_conditions":[6.59E2,3.5205573E-1,-1.855174E-1],"split_indices":[26,0,0],"split_type":[0,0,0],"sum_hessian":[1.117899E4,2.066753E3,9.112237E3],"tree_param":{"num_deleted":"0","num_feature":"47","num_nodes":"3","size_leaf_vector":"1"}},{"base_weights":[-2.773427E-1,-5.671689E-1,8.9221007E-1,-1.7579687E-1,1.2408002E-1,2.6802996E-1,5.839698E-1,1.6127412E-1,-1.2033683E-1,-1.18259385E-1,2.515263E-1,1.8159886E-1,-3.0494106E-1,-3.1903696E-1,1.9176044E-1,1.5264302E-1,2.94092E-1,-1.5758196E-1,1.1747618E-1,2.6807275E-1,-4.6079016E-1,-1.4233221E-1,6.0289943E-1,-4.7315713E-3,6.786205E-2,1.754667E-1,-1.08141296E-1,2.9875824E-1,-1.22946665E-1,-1.7593879E-1,-2.2024853E-2,1.3672183E-1,-1.5744978E-1,-1.1616487E-1,3.2572275E-1],"categories":[],"categories_nodes":[],"categories_segments":[],"categories_sizes":[],"default_left":[0,0,0,0,0,0,0,0,0,0,0,0,0,0,0,0,0,0,0,0,0,0,0,0,0,0,0,0,0,0,0,0,0,0,0],"id":8,"left_children":[1,3,5,-1,7,-1,9,11,13,-1,-1,15,17,19,21,23,-1,-1,25,27,29,31,33,-1,-1,-1,-1,-1,-1,-1,-1,-1,-1,-1,-1],"loss_changes":[3.1936436E3,9.829614E1,1.8383789E-1,0E0,1.8461297E0,0E0,2.889775E0,1.711997E0,1.7425038E0,0E0,0E0,3.7392497E0,7.761776E-1,1.5334285E0,1.6202714E0,2.0286305E0,0E0,0E0,9.812735E-1,2.345549E0,6.3917494E-1,1.8341385E0,2.9059625E0,0E0,0E0,0E0,0E0,0E0,0E0,0E0,0E0,0E0,0E0,0E0,0E0],"parents":[2147483647,0,0,1,1,2,2,4,4,6,6,7,7,8,8,11,11,12,12,13,13,14,14,15,15,18,18,19,19,20,20,21,21,22,22],"right_children":[2,4,6,-1,8,-1,10,12,14,-1,-1,16,18,20,22,24,-1,-1,26,28,30,32,34,-1,-1,-1,-1,-1,-1,-1,-1,-1,-1,-1,-1],"split_conditions":[7.03E2,7.01E2,7.75E2,-1.7579687E-1,1E0,2.6802996E-1,7.77E2,1.664E3,3.9E1,-1.18259385E-1,2.515263E-1,7.1E1,1E0,1.58E4,8.6E1,1E0,2.94092E-1,-1.5758196E-1,3E0,4E0,1.46E-1,5.1E1,4.8E-2,-4.7315713E-3,6.786205E-2,1.754667E-1,-1.08141296E-1,2.9875824E-1,-1.22946665E-1,-1.7593879E-1,-2.2024853E-2,1.3672183E-1,-1.5744978E-1,-1.1616487E-1,3.2572275E-1],"split_indices":[26,26,26,0,43,0,26,5,19,0,0,4,18,20,5,1,0,0,17,4,28,5,29,0,0,0,0,0,0,0,0,0,0,0,0],"split_type":[0,0,0,0,0,0,0,0,0,0,0,0,0,0,0,0,0,0,0,0,0,0,0,0,0,0,0,0,0,0,0,0,0,0,0],"sum_hessian":[9.4192E3,7.5490015E3,1.8701986E3,7.349061E3,1.9994038E2,1.8609161E3,9.2824955E0,1.7382826E2,2.6112127E1,1.8028245E0,7.4796715E0,1.6715173E2,6.6765285E0,1.5940927E1,1.01712E1,1.6245337E2,4.698366E0,4.227814E0,2.4487143E0,2.9269671E0,1.301396E1,5.9720807E0,4.199119E0,4.9626175E1,1.12827194E2,1.1248775E0,1.3238367E0,1.1853387E0,1.7416284E0,9.438094E0,3.5758655E0,2.254892E0,3.7171888E0,1.4414134E0,2.7577057E0],"tree_param":{"num_deleted":"0","num_feature":"47","num_nodes":"35","size_leaf_vector":"1"}},{"base_weights":[5.2400774E-1,-1.7574982E-1,7.4814206E-1,2.6809016E-1,-1.7605445E-1],"categories":[],"categories_nodes":[],"categories_segments":[],"categories_sizes":[],"default_left":[0,0,0,0,0],"id":9,"left_children":[1,-1,3,-1,-1],"loss_changes":[3.3283667E3,0E0,2.162503E3,0E0,0E0],"parents":[2147483647,0,0,2,2],"right_children":[2,-1,4,-1,-1],"split_conditions":[6.69E2,-1.7574982E-1,7.01E2,2.6809016E-1,-1.7605445E-1],"split_indices":[26,0,26,0,0],"split_type":[0,0,0,0,0],"sum_hessian":[1.3377427E4,2.247403E3,1.1130024E4,1.0036539E4,1.0934849E3],"tree_param":{"num_deleted":"0","num_feature":"47","num_nodes":"5","size_leaf_vector":"1"}},{"base_weights":[-1.9895646E-1,4.3215755E-1,-5.3861123E-1,-5.847043E-1,2.680425E-1,-1.757848E-1,-3.3859828E-1,3.1434063E-2,-1.7566529E-1,5.6080717E-1,-5.804913E-1,5.7650733E-1,2.0781487E-1,-1.7564684E-1,7.4230194E-2,5.8584946E-1,4.887369E-2,-9.9878214E-2,6.572412E-1,2.3013547E-1,-1.4443235E-1,1.4562605E-1,2.007386E-1,1.6778804E-1,-1.6902062E-1,-1.09388776E-1,1.9995129E-1,6.500575E-2,2.4581876E-1],"categories":[],"categories_nodes":[],"categories_segments":[],"categories_sizes":[],"default_left":[0,0,0,0,0,0,0,0,0,0,0,0,0,0,0,0,0,0,0,0,0,0,0,0,0,0,0,0,0],"id":10,"left_children":[1,3,5,7,-1,-1,9,-1,-1,11,13,15,17,-1,19,21,23,25,27,-1,-1,-1,-1,-1,-1,-1,-1,-1,-1],"loss_changes":[2.0814194E3,1.5942725E3,5.9568115E1,6.8066406E-1,0E0,0E0,2.6366434E2,0E0,0E0,1.304779E0,3.1665344E0,1.1817017E0,1.7955644E0,0E0,3.494878E0,1.692337E0,1.9911017E0,1.9258627E0,1.9506192E-1,0E0,0E0,0E0,0E0,0E0,0E0,0E0,0E0,0E0,0E0],"parents":[2147483647,0,0,1,1,2,2,3,3,6,6,9,9,10,10,11,11,12,12,14,14,15,15,16,16,17,17,18,18],"right_children":[2,4,6,8,-1,-1,10,-1,-1,12,14,16,18,-1,20,22,24,26,28,-1,-1,-1,-1,-1,-1,-1,-1,-1,-1],"split_conditions":[6.69E2,6.59E2,7.01E2,5.09E2,2.680425E-1,-1.757848E-1,7.03E2,3.1434063E-2,-1.7566529E-1,4E0,7.75E2,3.65E2,1E0,-1.7564684E-1,7.77E2,7.1E1,6.7E1,1.2E1,6E1,2.3013547E-1,-1.4443235E-1,1.4562605E-1,2.007386E-1,1.6778804E-1,-1.6902062E-1,-1.09388776E-1,1.9995129E-1,6.500575E-2,2.4581876E-1],"split_indices":[26,26,26,26,0,0,26,0,0,18,26,21,24,0,26,3,3,9,5,0,0,0,0,0,0,0,0,0,0],"split_type":[0,0,0,0,0,0,0,0,0,0,0,0,0,0,0,0,0,0,0,0,0,0,0,0,0,0,0,0,0],"sum_hessian":[9.7078E3,3.3964912E3,6.311308E3,1.0599102E3,2.336581E3,5.1018887E3,1.2094196E3,1.1493781E0,1.0587607E3,2.5605157E2,9.53368E2,2.4454178E2,1.1509786E1,9.4625006E2,7.1179466E0,2.401789E2,4.3628807E0,7.293895E0,4.2158914E0,2.9984894E0,4.1194572E0,1.1197407E2,1.2820482E2,2.4265423E0,1.9363383E0,5.810757E0,1.4831375E0,1.7628158E0,2.4530756E0],"tree_param":{"num_deleted":"0","num_feature":"47","num_nodes":"29","size_leaf_vector":"1"}},{"base_weights":[-2.6048052E-1,8.93248E-1,-1.7585352E-1,9.355977E-2,2.6805118E-1],"categories":[],"categories_nodes":[],"categories_segments":[],"categories_sizes":[],"default_left":[0,0,0,0,0],"id":11,"left_children":[1,3,-1,-1,-1],"loss_changes":[3.5581646E3,3.137207E-2,0E0,0E0,0E0],"parents":[2147483647,0,0,1,1],"right_children":[2,4,-1,-1,-1],"split_conditions":[6.59E2,5.09E2,-1.7585352E-1,9.355977E-2,2.6805118E-1],"split_indices":[26,26,0,0,0],"split_type":[0,0,0,0,0],"sum_hessian":[9.466682E3,2.0837197E3,7.382962E3,1.4531629E0,2.0822666E3],"tree_param":{"num_deleted":"0","num_feature":"47","num_nodes":"5","size_leaf_vector":"1"}},{"base_weights":[-2.5709346E-1,-1.6886869E-1,6.8493026E-1,1.2129207E-1,7.512006E-1,1.40632E-1,-2.744527E-1,2.256795E-1,4.8583746E-1,1.7873557E-1,-4.9856726E-2,-4.4391754E-1,1.4147024E-1,-1.086098E-1,2.0928109E-1,1.4762461E-1,9.834462E-1,-1.9917464E-1,5.04417E-1,3.2181244E-2,-1.6356134E-1,3.2806974E-2,1.3887446E-1,3.5727862E-1,2.6898067E-2,-1.8080662E-1,8.51344E-3,-1.18831836E-1,2.4168882E-1],"categories":[],"categories_nodes":[],"categories_segments":[],"categories_sizes":[],"default_left":[0,0,0,0,0,0,0,0,0,0,0,0,0,0,0,0,0,0,0,0,0,0,0,0,0,0,0,0,0],"id":12,"left_children":[1,-1,3,5,7,9,11,-1,13,15,17,19,-1,-1,-1,21,23,25,27,-1,-1,-1,-1,-1,-1,-1,-1,-1,-1],"loss_changes":[2.2246675E3,0E0,7.0605225E1,1.5717406E0,1.1279297E-1,1.3999112E0,1.4321133E0,0E0,1.9741528E0,3.8583727E0,2.8090022E0,5.2725875E-1,0E0,0E0,0E0,1.8212302E0,9.6431065E-1,2.4501734E0,2.279798E0,0E0,0E0,0E0,0E0,0E0,0E0,0E0,0E0,0E0,0E0],"parents":[2147483647,0,0,2,2,3,3,4,4,5,5,6,6,8,8,9,9,10,10,11,11,15,15,16,16,17,17,18,18],"right_children":[2,-1,4,6,8,10,12,-1,14,16,18,20,-1,-1,-1,22,24,26,28,-1,-1,-1,-1,-1,-1,-1,-1,-1,-1],"split_conditions":[7.01E2,-1.6886869E-1,7.03E2,4E0,7.75E2,2.3E1,1E0,2.256795E-1,7.77E2,1.4E1,2.14E-1,4.8E-2,1.4147024E-1,-1.086098E-1,2.0928109E-1,1E1,3.6E1,3E0,7.2E1,3.2181244E-2,-1.6356134E-1,3.2806974E-2,1.3887446E-1,3.5727862E-1,2.6898067E-2,-1.8080662E-1,8.51344E-3,-1.18831836E-1,2.4168882E-1],"split_indices":[26,0,26,32,26,16,41,0,26,16,27,29,0,0,0,17,19,6,21,0,0,0,0,0,0,0,0,0,0],"split_type":[0,0,0,0,0,0,0,0,0,0,0,0,0,0,0,0,0,0,0,0,0,0,0,0,0,0,0,0,0],"sum_hessian":[7.720248E3,5.8285664E3,1.8916816E3,1.9931464E2,1.6923671E3,1.9064262E2,8.672013E0,1.6837787E3,8.588393E0,1.5891621E2,3.1726404E1,7.396734E0,1.2752788E0,1.5745635E0,7.0138297E0,1.5414044E2,4.775781E0,2.5498045E1,6.2283597E0,1.13906E0,6.257674E0,1.3865782E2,1.5482612E1,3.60619E0,1.1695911E0,8.599747E0,1.6898298E1,1.482161E0,4.7461987E0],"tree_param":{"num_deleted":"0","num_feature":"47","num_nodes":"29","size_leaf_vector":"1"}},{"base_weights":[4.5465124E-1,-1.6881076E-1,6.368829E-1,2.2575043E-1,-1.69209E-1],"categories":[],"categories_nodes":[],"categories_segments":[],"categories_sizes":[],"default_left":[0,0,0,0,0],"id":13,"left_children":[1,-1,3,-1,-1],"loss_changes":[2.1764475E3,0E0,1.382657E3,0E0,0E0],"parents":[2147483647,0,0,2,2],"right_children":[2,-1,4,-1,-1],"split_conditions":[6.69E2,-1.6881076E-1,7.01E2,2.2575043E-1,-1.69209E-1],"split_indices":[26,0,26,0,0],"split_type":[0,0,0,0,0],"sum_hessian":[1.1736644E4,1.7826224E3,9.954021E3,9.080194E3,8.7382733E2],"tree_param":{"num_deleted":"0","num_feature":"47","num_nodes":"5","size_leaf_vector":"1"}},{"base_weights":[-1.8313217E-1,3.7840557E-1,-5.1082504E-1,-5.6133854E-1,2.2569893E-1,-1.6885436E-1,-3.0367252E-1,2.7126301E-2,-1.6870737E-1,4.3041202E-1,-5.568943E-1,4.3631324E-1,-5.6474093E-2,-1.6868581E-1,7.029066E-2,4.1654184E-1,6.74162E-1,1.9117622E-1,-1.3382395E-1,1.3028432E-1,-8.7464815E-3,2.66125E-1,-2.722734E-2],"categories":[],"categories_nodes":[],"categories_segments":[],"categories_sizes":[],"default_left":[0,0,0,0,0,0,0,0,0,0,0,0,0,0,0,0,0,0,0,0,0,0,0],"id":14,"left_children":[1,3,5,7,-1,-1,9,-1,-1,11,13,15,-1,-1,17,19,21,-1,-1,-1,-1,-1,-1],"loss_changes":[1.4760166E3,1.0391906E3,5.441394E1,6.102295E-1,0E0,0E0,1.8963242E2,0E0,0E0,1.0382118E0,2.6027374E0,9.404793E-1,0E0,0E0,2.4359436E0,1.9290886E0,3.0633736E0,0E0,0E0,0E0,0E0,0E0,0E0],"parents":[2147483647,0,0,1,1,2,2,3,3,6,6,9,9,10,10,11,11,14,14,15,15,16,16],"right_children":[2,4,6,8,-1,-1,10,-1,-1,12,14,16,-1,-1,18,20,22,-1,-1,-1,-1,-1,-1],"split_conditions":[6.69E2,6.59E2,7.01E2,5.09E2,2.2569893E-1,-1.6885436E-1,7.03E2,2.7126301E-2,-1.6870737E-1,3.6E1,7.75E2,5E0,-5.6474093E-2,-1.6868581E-1,7.77E2,1.56E2,1E0,1.9117622E-1,-1.3382395E-1,1.3028432E-1,-8.7464815E-3,2.66125E-1,-2.722734E-2],"split_indices":[26,26,26,26,0,0,26,0,0,9,26,7,0,0,26,3,41,0,0,0,0,0,0],"split_type":[0,0,0,0,0,0,0,0,0,0,0,0,0,0,0,0,0,0,0,0,0,0,0],"sum_hessian":[8.0192593E3,2.9551428E3,5.064116E3,8.4101294E2,2.11413E3,4.0462524E3,1.01786395E3,1.1763265E0,8.398366E2,2.6087964E2,7.569843E2,2.5870667E2,2.1729786E0,7.5063477E2,6.3495502E0,2.4139201E2,1.7314638E1,2.9149249E0,3.4346254E0,2.3217673E2,9.21529E0,1.3419506E1,3.895131E0],"tree_param":{"num_deleted":"0","num_feature":"47","num_nodes":"23","size_leaf_vector":"1"}},{"base_weights":[-2.4297507E-1,7.5209343E-1,-1.68942E-1,7.6911554E-2,2.2570457E-1],"categories":[],"categories_nodes":[],"categories_segments":[],"categories_sizes":[],"default_left":[0,0,0,0,0],"id":15,"left_children":[1,3,-1,-1,-1],"loss_changes":[2.468977E3,4.5654297E-2,0E0,0E0,0E0],"parents":[2147483647,0,0,1,1],"right_children":[2,4,-1,-1,-1],"split_conditions":[6.59E2,5.09E2,-1.68942E-1,7.6911554E-2,2.2570457E-1],"split_indices":[26,26,0,0,0],"split_type":[0,0,0,0,0],"sum_hessian":[7.747468E3,1.8856238E3,5.861844E3,1.487361E0,1.8841365E3],"tree_param":{"num_deleted":"0","num_feature":"47","num_nodes":"5","size_leaf_vector":"1"}},{"base_weights":[-2.4201016E-1,-1.638403E-1,6.0240704E-1,1.2022808E-1,6.6881967E-1,2.0808002E-1,4.4402536E-2,2.0095277E-1,4.1968E-1,2.5442818E-1,-3.330087E-1,-5.7378393E-2,2.9191396E-1,-9.952692E-2,1.8240215E-1,5.9717257E-2,4.0890896E-1,-1.704403E-1,1.067098E-1,-1.8474777E-1,2.53738E-1,4.5498455E-1,-2.3967499E-1,-5.606931E-2,7.463865E-2,1.7210332E-1,-3.3960827E-2,-2.3207258E-2,-1.575109E-1,1.2884064E-1,-1.0387732E-1,1.9902073E-1,1.9152947E-2,1.391116E-1,-1.7008883E-1],"categories":[],"categories_nodes":[],"categories_segments":[],"categories_sizes":[],"default_left":[0,0,0,0,0,0,0,0,0,0,0,0,0,0,0,0,0,0,0,0,0,0,0,0,0,0,0,0,0,0,0,0,0,0,0],"id":16,"left_children":[1,-1,3,5,7,9,11,-1,13,15,17,19,21,-1,-1,23,25,-1,-1,27,29,31,33,-1,-1,-1,-1,-1,-1,-1,-1,-1,-1,-1,-1],"loss_changes":[1.588446E3,0E0,5.2371765E1,1.319793E0,8.569336E-2,2.3958304E0,2.7464693E0,0E0,1.413554E0,2.545866E0,1.4496231E0,3.1226337E0,2.8603547E0,0E0,0E0,1.8638421E0,4.149261E0,0E0,0E0,1.9930669E0,2.5703526E0,1.9657488E0,2.1288686E0,0E0,0E0,0E0,0E0,0E0,0E0,0E0,0E0,0E0,0E0,0E0,0E0],"parents":[2147483647,0,0,2,2,3,3,4,4,5,5,6,6,8,8,9,9,10,10,11,11,12,12,15,15,16,16,19,19,20,20,21,21,22,22],"right_children":[2,-1,4,6,8,10,12,-1,14,16,18,20,22,-1,-1,24,26,-1,-1,28,30,32,34,-1,-1,-1,-1,-1,-1,-1,-1,-1,-1,-1,-1],"split_conditions":[7.01E2,-1.638403E-1,7.03E2,7.1E1,7.75E2,1.3E1,7E0,2.0095277E-1,7.77E2,5E1,1.1E1,2.2E1,5.15E-1,-9.952692E-2,1.8240215E-1,6.5E1,2.88E2,-1.704403E-1,1.067098E-1,1.13E-1,1.664E3,7E0,1E0,-5.606931E-2,7.463865E-2,1.7210332E-1,-3.3960827E-2,-2.3207258E-2,-1.575109E-1,1.2884064E-1,-1.0387732E-1,1.9902073E-1,1.9152947E-2,1.391116E-1,-1.7008883E-1],"split_indices":[26,0,26,3,26,0,17,0,26,3,2,4,29,0,0,5,5,0,0,28,5,1,2,0,0,0,0,0,0,0,0,0,0,0,0],"split_type":[0,0,0,0,0,0,0,0,0,0,0,0,0,0,0,0,0,0,0,0,0,0,0,0,0,0,0,0,0,0,0,0,0,0,0],"sum_hessian":[6.1830713E3,4.546105E3,1.636966E3,1.9851178E2,1.4384542E3,9.115493E1,1.0735686E2,1.4308909E3,7.563306E0,8.445089E1,6.704044E0,7.6618286E1,3.073857E1,1.3630521E0,6.200254E0,3.7974087E1,4.64768E1,5.128307E0,1.5757366E0,5.465074E1,2.1967543E1,2.3633E1,7.10557E0,1.648466E1,2.1489428E1,3.5252884E1,1.1223918E1,4.2473907E1,1.2176834E1,1.7210909E1,4.756634E0,1.4963632E1,8.669368E0,2.124009E0,4.9815607E0],"tree_param":{"num_deleted":"0","num_feature":"47","num_nodes":"35","size_leaf_vector":"1"}},{"base_weights":[4.118347E-1,-1.6376652E-1,5.7034886E-1,2.0104071E-1,-1.642305E-1],"categories":[],"categories_nodes":[],"categories_segments":[],"categories_sizes":[],"default_left":[0,0,0,0,0],"id":17,"left_children":[1,-1,3,-1,-1],"loss_changes":[1.4874264E3,0E0,9.378777E2,0E0,0E0],"parents":[2147483647,0,0,2,2],"right_children":[2,-1,4,-1,-1],"split_conditions":[6.69E2,-1.6376652E-1,7.01E2,2.0104071E-1,-1.642305E-1],"split_indices":[26,0,26,0,0],"split_type":[0,0,0,0,0],"sum_hessian":[9.794727E3,1.3905784E3,8.404148E3,7.715748E3,6.884E2],"tree_param":{"num_deleted":"0","num_feature":"47","num_nodes":"5","size_leaf_vector":"1"}},{"base_weights":[-1.716878E-1,3.4496567E-1,-4.880556E-1,-5.441974E-1,2.0097876E-1,-1.6382287E-1,-2.722795E-1,2.391502E-2,-1.6363688E-1,3.3748162E-1,-5.3954947E-1,3.1084E-1,4.9439046E-1,-1.636099E-1,6.702538E-2,5.316951E-1,2.8699163E-1,-2.3301063E-2,5.585347E-1,1.64744E-1,-1.2397629E-1,2.1561386E-1,1.6006109E-3,8.969394E-2,-4.986295E-2,-1.230425E-1,1.5854107E-1,2.2272861E-1,1.09203264E-1],"categories":[],"categories_nodes":[],"categories_segments":[],"categories_sizes":[],"default_left":[0,0,0,0,0,0,0,0,0,0,0,0,0,0,0,0,0,0,0,0,0,0,0,0,0,0,0,0,0],"id":18,"left_children":[1,3,5,7,-1,-1,9,-1,-1,11,13,15,17,-1,19,21,23,25,27,-1,-1,-1,-1,-1,-1,-1,-1,-1,-1],"loss_changes":[1.056073E3,7.094343E2,5.001709E1,5.5978394E-1,0E0,0E0,1.3889096E2,0E0,0E0,9.331646E-1,2.1258087E0,1.0322151E0,1.209897E0,0E0,1.735506E0,2.0387878E0,1.164545E0,1.2697943E0,8.783674E-1,0E0,0E0,0E0,0E0,0E0,0E0,0E0,0E0,0E0,0E0],"parents":[2147483647,0,0,1,1,2,2,3,3,6,6,9,9,10,10,11,11,12,12,14,14,15,15,16,16,17,17,18,18],"right_children":[2,4,6,8,-1,-1,10,-1,-1,12,14,16,18,-1,20,22,24,26,28,-1,-1,-1,-1,-1,-1,-1,-1,-1,-1],"split_conditions":[6.69E2,6.59E2,7.01E2,5.09E2,2.0097876E-1,-1.6382287E-1,7.03E2,2.391502E-2,-1.6363688E-1,1E0,7.75E2,1.48E4,1.25E4,-1.636099E-1,7.77E2,7.78E-1,4.17E-1,2E0,3.5E1,1.64744E-1,-1.2397629E-1,2.1561386E-1,1.6006109E-3,8.969394E-2,-4.986295E-2,-1.230425E-1,1.5854107E-1,2.2272861E-1,1.09203264E-1],"split_indices":[26,26,26,26,0,0,26,0,0,43,26,20,20,0,26,29,28,17,19,0,0,0,0,0,0,0,0,0,0],"split_type":[0,0,0,0,0,0,0,0,0,0,0,0,0,0,0,0,0,0,0,0,0,0,0,0,0,0,0,0,0],"sum_hessian":[6.459009E3,2.4529912E3,4.0060178E3,6.563676E2,1.7966237E3,3.1558906E3,8.501271E2,1.1961846E0,6.5517145E2,2.589911E2,5.91136E2,2.2394789E2,3.5043182E1,5.85621E2,5.5150027E0,1.9750221E1,2.0419768E2,3.9335163E0,3.1109667E1,2.6806674E0,2.8343356E0,1.4302903E1,5.447318E0,1.9926692E2,4.9307547E0,2.463245E0,1.4702713E0,1.4543887E1,1.656578E1],"tree_param":{"num_deleted":"0","num_feature":"47","num_nodes":"29","size_leaf_vector":"1"}},{"base_weights":[-2.3105608E-1,6.696418E-1,-1.6392748E-1,6.3547835E-2,2.009814E-1],"categories":[],"categories_nodes":[],"categories_segments":[],"categories_sizes":[],"default_left":[0,0,0,0,0],"id":19,"left_children":[1,3,-1,-1,-1],"loss_changes":[1.7565212E3,7.556152E-2,0E0,0E0,0E0],"parents":[2147483647,0,0,1,1],"right_children":[2,4,-1,-1,-1],"split_conditions":[6.59E2,5.09E2,-1.6392748E-1,6.3547835E-2,2.009814E-1],"split_indices":[26,26,0,0,0],"split_type":[0,0,0,0,0],"sum_hessian":[6.181512E3,1.6027922E3,4.57872E3,1.499422E0,1.6012928E3],"tree_param":{"num_deleted":"0","num_feature":"47","num_nodes":"5","size_leaf_vector":"1"}},{"base_weights":[-2.3016125E-1,-1.6016641E-1,5.445587E-1,1.1534441E-1,6.1667144E-1,2.0811453E-1,5.0441254E-2,1.8531448E-1,3.705023E-1,2.630504E-1,-1.5914105E-1,-4.8505854E-2,3.2347986E-1,-9.1047764E-2,1.6343847E-1,3.5609135E-1,-1.21477164E-1,2.2054102E-1,-1.8954305E-1,-3.37193E-2,5.498309E-1,1.3463151E-1,-7.654275E-3,1.1332232E-2,-1.5484545E-1,3.2565903E-2,2.8264531E-1,5.4014113E-2,-1.0894274E-1,-1.612147E-1,9.867175E-2,2.5540724E-1,1.8722436E-3],"categories":[],"categories_nodes":[],"categories_segments":[],"categories_sizes":[],"default_left":[0,0,0,0,0,0,0,0,0,0,0,0,0,0,0,0,0,0,0,0,0,0,0,0,0,0,0,0,0,0,0,0,0],"id":20,"left_children":[1,-1,3,5,7,9,11,-1,13,15,-1,17,19,-1,-1,21,23,25,27,29,31,-1,-1,-1,-1,-1,-1,-1,-1,-1,-1,-1,-1],"loss_changes":[1.1470173E3,0E0,4.2425934E1,1.1860619E0,7.299805E-2,3.4456897E0,3.210261E0,0E0,1.0416358E0,2.78055E0,0E0,3.3682022E0,2.5721343E0,0E0,0E0,2.1992283E0,1.0032334E0,2.3714733E0,3.789973E0,2.5863261E0,3.1729097E0,0E0,0E0,0E0,0E0,0E0,0E0,0E0,0E0,0E0,0E0,0E0,0E0],"parents":[2147483647,0,0,2,2,3,3,4,4,5,5,6,6,8,8,9,9,11,11,12,12,15,15,16,16,17,17,18,18,19,19,20,20],"right_children":[2,-1,4,6,8,10,12,-1,14,16,-1,18,20,-1,-1,22,24,26,28,30,32,-1,-1,-1,-1,-1,-1,-1,-1,-1,-1,-1,-1],"split_conditions":[7.01E2,-1.6016641E-1,7.03E2,3E0,7.75E2,1.3E1,3E0,1.8531448E-1,7.77E2,3.05E4,-1.5914105E-1,5.5E1,1.06E2,-9.1047764E-2,1.6343847E-1,1.82E2,1.1E1,5.1E1,6.6E1,1E0,1.84E2,1.3463151E-1,-7.654275E-3,1.1332232E-2,-1.5484545E-1,3.2565903E-2,2.8264531E-1,5.4014113E-2,-1.0894274E-1,-1.612147E-1,9.867175E-2,2.5540724E-1,1.8722436E-3],"split_indices":[26,0,26,17,26,0,2,0,26,20,0,5,21,0,0,21,9,19,3,46,21,0,0,0,0,0,0,0,0,0,0,0,0],"split_type":[0,0,0,0,0,0,0,0,0,0,0,0,0,0,0,0,0,0,0,0,0,0,0,0,0,0,0,0,0,0,0,0,0],"sum_hessian":[4.8724E3,3.500392E3,1.3720079E3,1.9772856E2,1.1742794E3,8.048286E1,1.172457E2,1.1678198E3,6.4595838E0,7.551026E1,4.9726E0,8.666229E1,3.0583406E1,1.1749054E0,5.284678E0,6.0858727E1,1.4651533E1,2.9611254E1,5.7051037E1,1.2192984E1,1.8390423E1,4.882469E1,1.2034034E1,1.108359E1,3.567943E0,2.6629068E1,2.9821837E0,1.8221226E1,3.882981E1,4.9022083E0,7.2907753E0,1.1464789E1,6.925632E0],"tree_param":{"num_deleted":"0","num_feature":"47","num_nodes":"33","size_leaf_vector":"1"}},{"base_weights":[3.8363433E-1,-1.6007063E-1,5.274298E-1,1.8542431E-1,-1.6057074E-1],"categories":[],"categories_nodes":[],"categories_segments":[],"categories_sizes":[],"default_left":[0,0,0,0,0],"id":21,"left_children":[1,-1,3,-1,-1],"loss_changes":[1.0429077E3,0E0,6.58702E2,0E0,0E0],"parents":[2147483647,0,0,2,2],"right_children":[2,-1,4,-1,-1],"split_conditions":[6.69E2,-1.6007063E-1,7.01E2,1.8542431E-1,-1.6057074E-1],"split_indices":[26,0,26,0,0],"split_type":[0,0,0,0,0],"sum_hessian":[7.904289E3,1.0708888E3,6.8334004E3,6.2966772E3,5.3672284E2],"tree_param":{"num_deleted":"0","num_feature":"47","num_nodes":"5","size_leaf_vector":"1"}},{"base_weights":[-1.627916E-1,3.2295248E-1,-4.679451E-1,-5.3143126E-1,1.8534678E-1,-1.6014469E-1,-2.4189274E-1,2.1422511E-2,-1.599051E-1,2.6971582E-1,-5.266083E-1,2.7836636E-1,-1.2054565E-1,-1.5987018E-1,6.404597E-2,2.503263E-1,5.7926196E-1,1.5923361E-1,-5.261083E-1,1.4524832E-1,-1.1462638E-1,6.959642E-2,2.0209138E-1,2.3168373E-1,6.663411E-2,-4.2599134E-2,-1.9677117E-1],"categories":[],"categories_nodes":[],"categories_segments":[],"categories_sizes":[],"default_left":[0,0,0,0,0,0,0,0,0,0,0,0,0,0,0,0,0,0,0,0,0,0,0,0,0,0,0],"id":22,"left_children":[1,3,5,7,-1,-1,9,-1,-1,11,13,15,17,-1,19,21,23,-1,25,-1,-1,-1,-1,-1,-1,-1,-1],"loss_changes":[7.5795557E2,4.9742792E2,4.663098E1,5.225067E-1,0E0,0E0,1.03624405E2,0E0,0E0,8.932953E-1,1.7317276E0,1.9595852E0,1.9223533E0,0E0,1.254702E0,1.6287107E0,1.2418394E0,0E0,1.2301731E-1,0E0,0E0,0E0,0E0,0E0,0E0,0E0,0E0],"parents":[2147483647,0,0,1,1,2,2,3,3,6,6,9,9,10,10,11,11,12,12,14,14,15,15,16,16,18,18],"right_children":[2,4,6,8,-1,-1,10,-1,-1,12,14,16,18,-1,20,22,24,-1,26,-1,-1,-1,-1,-1,-1,-1,-1],"split_conditions":[6.69E2,6.59E2,7.01E2,5.09E2,1.8534678E-1,-1.6014469E-1,7.03E2,2.1422511E-2,-1.599051E-1,1.8E1,7.75E2,1.7E1,1E0,-1.5987018E-1,7.77E2,1.1E1,3.2E4,1.5923361E-1,1E0,1.4524832E-1,-1.1462638E-1,6.959642E-2,2.0209138E-1,2.3168373E-1,6.663411E-2,-4.2599134E-2,-1.9677117E-1],"split_indices":[26,26,26,26,0,0,26,0,0,6,26,0,24,0,26,6,20,0,40,0,0,0,0,0,0,0,0],"split_type":[0,0,0,0,0,0,0,0,0,0,0,0,0,0,0,0,0,0,0,0,0,0,0,0,0,0,0],"sum_hessian":[5.1114756E3,1.9721478E3,3.139328E3,5.0579855E2,1.4663492E3,2.4299043E3,7.094236E2,1.2114321E0,5.0458713E2,2.5366422E2,4.5575937E2,2.4844392E2,5.220286E0,4.5105203E2,4.7073245E0,2.2894116E2,1.9502768E1,1.8847208E0,3.335565E0,2.3804588E0,2.326866E0,2.2091878E2,8.022384E0,1.1905962E1,7.5968046E0,1.371327E0,1.964238E0],"tree_param":{"num_deleted":"0","num_feature":"47","num_nodes":"27","size_leaf_vector":"1"}},{"base_weights":[-2.2282164E-1,6.174483E-1,-1.6026458E-1,5.263371E-2,1.8534605E-1],"categories":[],"categories_nodes":[],"categories_segments":[],"categories_sizes":[],"default_left":[0,0,0,0,0],"id":23,"left_children":[1,3,-1,-1,-1],"loss_changes":[1.2671456E3,1.0687256E-1,0E0,0E0,0E0],"parents":[2147483647,0,0,1,1],"right_children":[2,4,-1,-1,-1],"split_conditions":[6.59E2,5.09E2,-1.6026458E-1,5.263371E-2,1.8534605E-1],"split_indices":[26,26,0,0,0],"split_type":[0,0,0,0,0],"sum_hessian":[4.8405557E3,1.3085525E3,3.5320034E3,1.4974511E0,1.3070549E3],"tree_param":{"num_deleted":"0","num_feature":"47","num_nodes":"5","size_leaf_vector":"1"}},{"base_weights":[-2.2007146E-1,-1.5746921E-1,4.9985474E-1,1.1020528E-1,5.819599E-1,1.2478824E-1,-2.222432E-1,1.749204E-1,3.309339E-1,2.0715235E-1,6.5327995E-2,-3.9890042E-1,1.3181792E-1,-8.319148E-2,1.488517E-1,2.930619E-1,-1.7214988E-1,-3.2283184E-1,1.3616396E-1,2.9380914E-2,-1.5182416E-1,9.961497E-2,-1.3421291E-1,-1.6274709E-1,2.004333E-2,1.3572137E-1,-1.253342E-1,1.01128165E-2,1.15909815E-1],"categories":[],"categories_nodes":[],"categories_segments":[],"categories_sizes":[],"default_left":[0,0,0,0,0,0,0,0,0,0,0,0,0,0,0,0,0,0,0,0,0,0,0,0,0,0,0,0,0],"id":24,"left_children":[1,-1,3,5,7,9,11,-1,13,15,17,19,-1,-1,-1,21,23,25,27,-1,-1,-1,-1,-1,-1,-1,-1,-1,-1],"loss_changes":[8.3414734E2,0E0,3.6113556E1,9.8787236E-1,6.677246E-2,9.187498E-1,1.1900322E0,0E0,7.824574E-1,2.6361144E0,3.123846E0,4.42366E-1,0E0,0E0,0E0,2.0268989E0,1.3887663E0,1.4832877E0,2.4332626E0,0E0,0E0,0E0,0E0,0E0,0E0,0E0,0E0,0E0,0E0],"parents":[2147483647,0,0,2,2,3,3,4,4,5,5,6,6,8,8,9,9,10,10,11,11,15,15,16,16,17,17,18,18],"right_children":[2,-1,4,6,8,10,12,-1,14,16,18,20,-1,-1,-1,22,24,26,28,-1,-1,-1,-1,-1,-1,-1,-1,-1,-1],"split_conditions":[7.01E2,-1.5746921E-1,7.03E2,4E0,7.75E2,3E0,1E0,1.749204E-1,7.77E2,1.03E-1,1E0,4.8E-2,1.3181792E-1,-8.319148E-2,1.488517E-1,1.3E1,1E0,2E0,3.4E4,2.9380914E-2,-1.5182416E-1,9.961497E-2,-1.3421291E-1,-1.6274709E-1,2.004333E-2,1.3572137E-1,-1.253342E-1,1.01128165E-2,1.15909815E-1],"split_indices":[26,0,26,32,26,17,41,0,26,28,1,29,0,0,0,0,1,0,20,0,0,0,0,0,0,0,0,0,0],"split_type":[0,0,0,0,0,0,0,0,0,0,0,0,0,0,0,0,0,0,0,0,0,0,0,0,0,0,0,0,0],"sum_hessian":[3.7988489E3,2.6690222E3,1.1298268E3,1.9704504E2,9.3278174E2,1.893632E2,7.6818414E0,9.273655E2,5.4163017E0,7.834966E1,1.1101354E2,6.376431E0,1.3054101E0,1.0122011E0,4.404101E0,6.406639E1,1.4283271E1,1.6583496E1,9.4430046E1,1.1467725E0,5.2296586E0,6.1385662E1,2.6807272E0,5.103575E0,9.179695E0,1.3986998E0,1.5184796E1,6.780109E1,2.6628956E1],"tree_param":{"num_deleted":"0","num_feature":"47","num_nodes":"29","size_leaf_vector":"1"}},{"base_weights":[3.6418194E-1,-1.5734343E-1,4.982779E-1,1.750586E-1,-1.5785924E-1],"categories":[],"categories_nodes":[],"categories_segments":[],"categories_sizes":[],"default_left":[0,0,0,0,0],"id":25,"left_children":[1,-1,3,-1,-1],"loss_changes":[7.430228E2,0E0,4.7335217E2,0E0,0E0],"parents":[2147483647,0,0,2,2],"right_children":[2,-1,4,-1,-1],"split_conditions":[6.69E2,-1.5734343E-1,7.01E2,1.750586E-1,-1.5785924E-1],"split_indices":[26,0,26,0,0],"split_type":[0,0,0,0,0],"sum_hessian":[6.2320137E3,8.167123E2,5.4153013E3,4.9996875E3,4.1561392E2],"tree_param":{"num_deleted":"0","num_feature":"47","num_nodes":"5","size_leaf_vector":"1"}},{"base_weights":[-1.5544139E-1,3.0791062E-1,-4.48938E-1,-5.2173686E-1,1.7495967E-1,-1.5744165E-1,-2.1229586E-1,1.940077E-2,-1.5712924E-1,2.1677671E-1,-5.16774E-1,2.0286618E-1,4.7082502E-1,-1.5708339E-1,6.106616E-2,2.1178912E-1,-2.0543572E-1,5.9196675E-1,-7.163415E-2,1.2986366E-1,-1.0564563E-1,5.575087E-2,1.4177786E-1,1.2392326E-1,-1.462163E-1,2.9806443E-2,1.9717489E-1],"categories":[],"categories_nodes":[],"categories_segments":[],"categories_sizes":[],"default_left":[0,0,0,0,0,0,0,0,0,0,0,0,0,0,0,0,0,0,0,0,0,0,0,0,0,0,0],"id":26,"left_children":[1,3,5,7,-1,-1,9,-1,-1,11,13,15,17,-1,19,21,23,25,-1,-1,-1,-1,-1,-1,-1,-1,-1],"loss_changes":[5.4403674E2,3.5466467E2,4.385544E1,4.9404907E-1,0E0,0E0,7.8002075E1,0E0,0E0,7.8151894E-1,1.4109497E0,9.0713215E-1,1.1837656E0,0E0,9.1712976E-1,1.4856749E0,1.1739433E0,2.7704835E-1,0E0,0E0,0E0,0E0,0E0,0E0,0E0,0E0,0E0],"parents":[2147483647,0,0,1,1,2,2,3,3,6,6,9,9,10,10,11,11,12,12,14,14,15,15,16,16,17,17],"right_children":[2,4,6,8,-1,-1,10,-1,-1,12,14,16,18,-1,20,22,24,26,-1,-1,-1,-1,-1,-1,-1,-1,-1],"split_conditions":[6.69E2,6.59E2,7.01E2,5.09E2,1.7495967E-1,-1.5744165E-1,7.03E2,1.940077E-2,-1.5712924E-1,4E0,7.75E2,1.8E1,1E0,-1.5708339E-1,7.77E2,1.6E1,1E0,4.8E-2,-7.163415E-2,1.2986366E-1,-1.0564563E-1,5.575087E-2,1.4177786E-1,1.2392326E-1,-1.462163E-1,2.9806443E-2,1.9717489E-1],"split_indices":[26,26,26,26,0,0,26,0,0,32,26,6,41,0,26,0,24,29,0,0,0,0,0,0,0,0,0],"split_type":[0,0,0,0,0,0,0,0,0,0,0,0,0,0,0,0,0,0,0,0,0,0,0,0,0,0,0],"sum_hessian":[3.9984814E3,1.550543E3,2.4479382E3,3.860857E2,1.1644573E3,1.852734E3,5.9520435E2,1.2236779E0,3.84862E2,2.4717366E2,3.4803067E2,2.3604732E2,1.1126345E1,3.440535E2,3.9771647E0,2.3147011E2,4.5772047E0,9.645478E0,1.4808671E0,2.0684235E0,1.9087412E0,2.1207848E2,1.939163E1,1.2875857E0,3.2896187E0,1.423785E0,8.221693E0],"tree_param":{"num_deleted":"0","num_feature":"47","num_nodes":"27","size_leaf_vector":"1"}},{"base_weights":[-2.1712518E-1,5.826967E-1,-1.5757719E-1,4.3620594E-2,1.749548E-1],"categories":[],"categories_nodes":[],"categories_segments":[],"categories_sizes":[],"default_left":[0,0,0,0,0],"id":27,"left_children":[1,3,-1,-1,-1],"loss_changes":[9.2200824E2,1.3632202E-1,0E0,0E0,0E0],"parents":[2147483647,0,0,1,1],"right_children":[2,4,-1,-1,-1],"split_conditions":[6.59E2,5.09E2,-1.5757719E-1,4.3620594E-2,1.749548E-1],"split_indices":[26,26,0,0,0],"split_type":[0,0,0,0,0],"sum_hessian":[3.738904E3,1.0395756E3,2.6993286E3,1.4872394E0,1.0380883E3],"tree_param":{"num_deleted":"0","num_feature":"47","num_nodes":"5","size_leaf_vector":"1"}},{"base_weights":[-2.1082279E-1,-1.5547986E-1,4.6154612E-1,1.0361012E-1,5.5804E-1,1.1660528E-1,-2.6078802E-1,1.6777551E-1,2.970527E-1,1.02102175E-1,2.1854895E-1,-1.4286062E-1,8.057557E-2,-2.4641883E-2,1.3236296E-1,1.3882896E-1,-4.480165E-2,1.5485509E-1,-1.0597093E-1,-3.0741394E-2,5.217738E-2,1.4578115E-2,-1.6077533E-1],"categories":[],"categories_nodes":[],"categories_segments":[],"categories_sizes":[],"default_left":[0,0,0,0,0,0,0,0,0,0,0,0,0,0,0,0,0,0,0,0,0,0,0],"id":28,"left_children":[1,-1,3,5,7,9,11,-1,13,15,-1,-1,17,-1,-1,19,21,-1,-1,-1,-1,-1,-1],"loss_changes":[6.089758E2,0E0,3.1874664E1,9.658718E-1,6.4071655E-2,1.6244743E0,5.6129485E-1,0E0,3.3672166E-1,1.0214304E0,0E0,0E0,8.6388034E-1,0E0,0E0,1.2946787E0,1.7869052E0,0E0,0E0,0E0,0E0,0E0,0E0],"parents":[2147483647,0,0,2,2,3,3,4,4,5,5,6,6,8,8,9,9,12,12,15,15,16,16],"right_children":[2,-1,4,6,8,10,12,-1,14,16,-1,-1,18,-1,-1,20,22,-1,-1,-1,-1,-1,-1],"split_conditions":[7.01E2,-1.5547986E-1,7.03E2,1.664E3,7.75E2,7.6E1,1E0,1.6777551E-1,7.82E2,2.88E2,2.1854895E-1,-1.4286062E-1,1E0,-2.4641883E-2,1.3236296E-1,5.1E1,2.5E1,1.5485509E-1,-1.0597093E-1,-3.0741394E-2,5.217738E-2,1.4578115E-2,-1.6077533E-1],"split_indices":[26,0,26,5,26,4,18,0,26,5,0,0,1,0,0,21,16,0,0,0,0,0,0],"split_type":[0,0,0,0,0,0,0,0,0,0,0,0,0,0,0,0,0,0,0,0,0,0,0],"sum_hessian":[2.9438054E3,2.0202617E3,9.235437E2,1.9654616E2,7.2699756E2,1.9043488E2,6.1112804E0,7.225006E2,4.496942E0,1.8716553E2,3.2693534E0,3.504685E0,2.6065955E0,1.3571885E0,3.1397536E0,1.4977571E2,3.7389816E1,1.2058622E0,1.4007334E0,1.8774145E1,1.3100157E2,3.217262E1,5.2172E0],"tree_param":{"num_deleted":"0","num_feature":"47","num_nodes":"23","size_leaf_vector":"1"}},{"base_weights":[3.5026628E-1,-1.5531346E-1,4.77692E-1,1.6795126E-1,-1.5581961E-1],"categories":[],"categories_nodes":[],"categories_segments":[],"categories_sizes":[],"default_left":[0,0,0,0,0],"id":29,"left_children":[1,-1,3,-1,-1],"loss_changes":[5.34947E2,0E0,3.45614E2,0E0,0E0],"parents":[2147483647,0,0,2,2],"right_children":[2,-1,4,-1,-1],"split_conditions":[6.69E2,-1.5531346E-1,7.01E2,1.6795126E-1,-1.5581961E-1],"split_indices":[26,0,26,0,0],"split_type":[0,0,0,0,0],"sum_hessian":[4.8334185E3,6.1835376E2,4.2150645E3,3.8946423E3,3.2042233E2],"tree_param":{"num_deleted":"0","num_feature":"47","num_nodes":"5","size_leaf_vector":"1"}},{"base_weights":[-1.4887953E-1,2.973471E-1,-4.296927E-1,-5.141589E-1,1.6782345E-1,-1.5544441E-1,-1.8322536E-1,1.7688906E-2,-1.5503368E-1,1.7497894E-1,-5.0910425E-1,1.6241303E-1,4.6030396E-1,-1.549731E-1,5.79022E-2,1.7906542E-1,-4.1096506E-1,1.8255498E-1,1.587098E-1,1.1706525E-1,-9.70145E-2,4.3216687E-2,9.5402256E-2,-3.932459E-2,-1.9461448E-1,-9.7692646E-2,1.4599928E-1],"categories":[],"categories_nodes":[],"categories_segments":[],"categories_sizes":[],"default_left":[0,0,0,0,0,0,0,0,0,0,0,0,0,0,0,0,0,0,0,0,0,0,0,0,0,0,0],"id":30,"left_children":[1,3,5,7,-1,-1,9,-1,-1,11,13,15,17,-1,19,21,23,-1,25,-1,-1,-1,-1,-1,-1,-1,-1],"loss_changes":[3.895327E2,2.5567615E2,4.149637E1,4.7143555E-1,0E0,0E0,5.9084312E1,0E0,0E0,7.911086E-1,1.1522827E0,2.2969465E0,3.344195E-1,0E0,6.767167E-1,1.0583105E0,3.7247097E-1,0E0,8.7803197E-1,0E0,0E0,0E0,0E0,0E0,0E0,0E0,0E0],"parents":[2147483647,0,0,1,1,2,2,3,3,6,6,9,9,10,10,11,11,12,12,14,14,15,15,16,16,18,18],"right_children":[2,4,6,8,-1,-1,10,-1,-1,12,14,16,18,-1,20,22,24,-1,26,-1,-1,-1,-1,-1,-1,-1,-1],"split_conditions":[6.69E2,6.59E2,7.01E2,5.09E2,1.6782345E-1,-1.5544441E-1,7.03E2,1.7688906E-2,-1.5503368E-1,1.664E3,7.75E2,7.1E1,1E0,-1.549731E-1,7.77E2,2.88E2,7.8E1,1.8255498E-1,1E0,1.1706525E-1,-9.70145E-2,4.3216687E-2,9.5402256E-2,-3.932459E-2,-1.9461448E-1,-9.7692646E-2,1.4599928E-1],"split_indices":[26,26,26,26,0,0,26,0,0,5,26,4,18,0,26,5,4,0,1,0,0,0,0,0,0,0,0],"split_type":[0,0,0,0,0,0,0,0,0,0,0,0,0,0,0,0,0,0,0,0,0,0,0,0,0,0,0],"sum_hessian":[3.1066243E3,1.1998855E3,1.9067389E3,2.9266376E2,9.072217E2,1.4023452E3,5.043937E2,1.2339528E0,2.914298E2,2.4050021E2,2.6389346E2,2.3185825E2,8.641979E0,2.6054858E2,3.344905E0,2.2598282E2,5.875427E0,5.11208E0,3.5298996E0,1.7747004E0,1.5702046E0,1.8212805E2,4.385475E1,3.4111304E0,2.4642963E0,1.4279816E0,2.101918E0],"tree_param":{"num_deleted":"0","num_feature":"47","num_nodes":"27","size_leaf_vector":"1"}},{"base_weights":[-2.13212E-1,5.587295E-1,-1.55596E-1,3.6129523E-2,1.6781336E-1],"categories":[],"categories_nodes":[],"categories_segments":[],"categories_sizes":[],"default_left":[0,0,0,0,0],"id":31,"left_children":[1,3,-1,-1,-1],"loss_changes":[6.74687E2,1.6317749E-1,0E0,0E0,0E0],"parents":[2147483647,0,0,1,1],"right_children":[2,4,-1,-1,-1],"split_conditions":[6.59E2,5.09E2,-1.55596E-1,3.6129523E-2,1.6781336E-1],"split_indices":[26,26,0,0,0],"split_type":[0,0,0,0,0],"sum_hessian":[2.8592473E3,8.103703E2,2.048877E3,1.4727426E0,8.088975E2],"tree_param":{"num_deleted":"0","num_feature":"47","num_nodes":"5","size_leaf_vector":"1"}},{"base_weights":[-2.015811E-1,-1.540046E-1,4.2588094E-1,9.67917E-2,5.4105836E-1,1.218209E-1,-8.523001E-2,1.6274098E-1,2.6557285E-1,-1.5371898E-1,1.4670482E-1,-1.5377259E-1,3.276449E-2,-2.2865625E-2,1.21604756E-1,-4.0228146E-1,3.6982548E-1,-2.5890338E-1,1.678401E-1,-1.8431425E-1,4.7640434E-1,-1.6486518E-1,-1.4621756E-2,2.1653877E-1,-1.1199362E-1,9.919708E-2,-1.6958654E-1,-7.064701E-2,5.7660308E-2,2.6040044E-1,-1.0662224E-1,2.2108923E-1,-1.0955095E-1],"categories":[],"categories_nodes":[],"categories_segments":[],"categories_sizes":[],"default_left":[0,0,0,0,0,0,0,0,0,0,0,0,0,0,0,0,0,0,0,0,0,0,0,0,0,0,0,0,0,0,0,0,0],"id":32,"left_children":[1,-1,3,5,7,9,11,-1,13,15,17,-1,19,-1,-1,21,23,25,27,29,31,-1,-1,-1,-1,-1,-1,-1,-1,-1,-1,-1,-1],"loss_changes":[4.457242E2,0E0,2.8621674E1,9.0944517E-1,7.376099E-2,1.2148867E0,1.2493639E0,0E0,2.6091325E-1,2.0867496E0,1.4151278E0,0E0,2.0230465E0,0E0,0E0,5.239148E-1,1.6597195E0,1.6893995E0,1.5454979E0,2.867603E0,1.7780157E0,0E0,0E0,0E0,0E0,0E0,0E0,0E0,0E0,0E0,0E0,0E0,0E0],"parents":[2147483647,0,0,2,2,3,3,4,4,5,5,6,6,8,8,9,9,10,10,12,12,15,15,16,16,17,17,18,18,19,19,20,20],"right_children":[2,-1,4,6,8,10,12,-1,14,16,18,-1,20,-1,-1,22,24,26,28,30,32,-1,-1,-1,-1,-1,-1,-1,-1,-1,-1,-1,-1],"split_conditions":[7.01E2,-1.540046E-1,7.03E2,1E0,7.75E2,1.48E4,1.67E-1,1.6274098E-1,7.82E2,7.78E-1,2.5E1,-1.5377259E-1,1.14E2,-2.2865625E-2,1.21604756E-1,1.33E2,3E0,7E0,2.8E1,1.76E-1,6.15E-1,-1.6486518E-1,-1.4621756E-2,2.1653877E-1,-1.1199362E-1,9.919708E-2,-1.6958654E-1,-7.064701E-2,5.7660308E-2,2.6040044E-1,-1.0662224E-1,2.2108923E-1,-1.0955095E-1],"split_indices":[26,0,26,43,26,20,29,0,26,29,19,0,5,0,0,5,32,4,5,29,29,0,0,0,0,0,0,0,0,0,0,0,0],"split_type":[0,0,0,0,0,0,0,0,0,0,0,0,0,0,0,0,0,0,0,0,0,0,0,0,0,0,0,0,0,0,0,0,0],"sum_hessian":[2.2763762E3,1.5208782E3,7.554979E2,1.9634212E2,5.591558E2,1.728982E2,2.3443916E1,5.553411E2,3.8146746E0,1.389221E1,1.5900598E2,4.348981E0,1.9094936E1,1.2391994E0,2.5754752E0,9.57698E0,4.3152304E0,7.3179007E0,1.516881E2,1.3213795E1,5.8811407E0,6.369382E0,3.2075982E0,2.9477928E0,1.3674376E0,2.4754E0,4.8425007E0,8.1463785E0,1.435417E2,1.2782986E0,1.1935496E1,4.585674E0,1.295467E0],"tree_param":{"num_deleted":"0","num_feature":"47","num_nodes":"33","size_leaf_vector":"1"}},{"base_weights":[3.3994782E-1,-1.5378335E-1,4.626217E-1,1.6296704E-1,-1.5425365E-1],"categories":[],"categories_nodes":[],"categories_segments":[],"categories_sizes":[],"default_left":[0,0,0,0,0],"id":33,"left_children":[1,-1,3,-1,-1],"loss_changes":[3.878427E2,0E0,2.5540265E2,0E0,0E0],"parents":[2147483647,0,0,2,2],"right_children":[2,-1,4,-1,-1],"split_conditions":[6.69E2,-1.5378335E-1,7.01E2,1.6296704E-1,-1.5425365E-1],"split_indices":[26,0,26,0,0],"split_type":[0,0,0,0,0],"sum_hessian":[3.7050693E3,4.6565833E2,3.2394111E3,2.992893E3,2.465179E2],"tree_param":{"num_deleted":"0","num_feature":"47","num_nodes":"5","size_leaf_vector":"1"}},{"base_weights":[-1.425936E-1,2.897574E-1,-4.0912384E-1,-5.079725E-1,1.6280043E-1,-1.5395842E-1,-1.5516722E-1,1.6184568E-2,-1.5341534E-1,1.4087404E-1,-5.027468E-1,1.1694006E-1,2.9516268E-1,-1.5333499E-1,5.421331E-2,3.3555877E-1,9.5119916E-2,4.3150282E-1,6.825832E-2,1.0709058E-1,-8.9754954E-2,1.5832448E-1,-3.913329E-2,1.2593833E-1,2.3113716E-2,-1.2183961E-2,1.6048995E-1,-6.969469E-2,1.1854466E-1],"categories":[],"categories_nodes":[],"categories_segments":[],"categories_sizes":[],"default_left":[0,0,0,0,0,0,0,0,0,0,0,0,0,0,0,0,0,0,0,0,0,0,0,0,0,0,0,0,0],"id":34,"left_children":[1,3,5,7,-1,-1,9,-1,-1,11,13,15,17,-1,19,21,23,25,27,-1,-1,-1,-1,-1,-1,-1,-1,-1,-1],"loss_changes":[2.7764285E2,1.8569756E2,3.9308075E1,4.5273972E-1,0E0,0E0,4.4793343E1,0E0,0E0,8.351159E-1,9.606514E-1,9.485111E-1,9.286225E-1,0E0,5.205481E-1,1.7038965E0,1.0724801E0,9.5750856E-1,1.350638E0,0E0,0E0,0E0,0E0,0E0,0E0,0E0,0E0,0E0,0E0],"parents":[2147483647,0,0,1,1,2,2,3,3,6,6,9,9,10,10,11,11,12,12,14,14,15,15,16,16,17,17,18,18],"right_children":[2,4,6,8,-1,-1,10,-1,-1,12,14,16,18,-1,20,22,24,26,28,-1,-1,-1,-1,-1,-1,-1,-1,-1,-1],"split_conditions":[6.69E2,6.59E2,7.01E2,5.09E2,1.6280043E-1,-1.5395842E-1,7.03E2,1.6184568E-2,-1.5341534E-1,1E0,7.75E2,1.48E4,3.9E1,-1.5333499E-1,7.77E2,7.78E-1,2.5E1,1.58E4,4.4E1,1.0709058E-1,-8.9754954E-2,1.5832448E-1,-3.913329E-2,1.2593833E-1,2.3113716E-2,-1.2183961E-2,1.6048995E-1,-6.969469E-2,1.1854466E-1],"split_indices":[26,26,26,26,0,0,26,0,0,43,26,20,19,0,26,29,19,20,19,0,0,0,0,0,0,0,0,0,0],"split_type":[0,0,0,0,0,0,0,0,0,0,0,0,0,0,0,0,0,0,0,0,0,0,0,0,0,0,0,0,0],"sum_hessian":[2.4073416E3,9.1804736E2,1.4892942E3,2.2075003E2,6.972973E2,1.0556643E3,4.3362994E2,1.2429048E0,2.1950713E2,2.3449773E2,1.9913222E2,2.0452827E2,2.996946E1,1.9626514E2,2.8670797E0,1.725635E1,1.8727193E2,1.8157475E1,1.1811985E1,1.5387352E0,1.3283445E0,1.2123757E1,5.1325917E0,8.703374E0,1.7856854E2,3.3731015E0,1.4784372E1,6.304422E0,5.507563E0],"tree_param":{"num_deleted":"0","num_feature":"47","num_nodes":"29","size_leaf_vector":"1"}},{"base_weights":[-2.1059175E-1,5.417382E-1,-1.5412751E-1,2.9884646E-2,1.6278367E-1],"categories":[],"categories_nodes":[],"categories_segments":[],"categories_sizes":[],"default_left":[0,0,0,0,0],"id":35,"left_children":[1,3,-1,-1,-1],"loss_changes":[4.9564337E2,1.8717957E-1,0E0,0E0,0E0],"parents":[2147483647,0,0,1,1],"right_children":[2,4,-1,-1,-1],"split_conditions":[6.59E2,5.09E2,-1.5412751E-1,2.9884646E-2,1.6278367E-1],"split_indices":[26,26,0,0,0],"split_type":[0,0,0,0,0],"sum_hessian":[2.1708787E3,6.233079E2,1.5475707E3,1.4565516E0,6.218514E2],"tree_param":{"num_deleted":"0","num_feature":"47","num_nodes":"5","size_leaf_vector":"1"}},{"base_weights":[-1.920622E-1,-1.529021E-1,3.90093E-1,8.7619126E-2,5.2872896E-1,3.6121288E-1,7.269373E-2,1.5912005E-1,2.3725455E-1,-1.2998621E-1,6.2237126E-1,-2.9024476E-1,1.0239193E-1,-2.1307155E-2,1.1172821E-1,8.5088116E-1,-2.4213744E-2,1.4209495E-1,-1.7492542E-1,6.912514E-2,3.7482074E-1,3.0305544E-1,1.400685E-2,1.4053272E-1,-7.9132855E-2,2.9232567E-2,-1.20481E-1,2.10775E-1,1.8145833E-3],"categories":[],"categories_nodes":[],"categories_segments":[],"categories_sizes":[],"default_left":[0,0,0,0,0,0,0,0,0,0,0,0,0,0,0,0,0,0,0,0,0,0,0,0,0,0,0,0,0],"id":36,"left_children":[1,-1,3,5,7,9,11,-1,13,-1,15,17,19,-1,-1,21,-1,23,-1,25,27,-1,-1,-1,-1,-1,-1,-1,-1],"loss_changes":[3.2623737E2,0E0,2.6078835E1,7.7820694E-1,8.216095E-2,2.3319674E0,2.0567966E0,0E0,2.0328861E-1,0E0,1.336432E0,1.9168209E0,1.5562713E0,0E0,0E0,7.2687244E-1,0E0,1.0048646E0,0E0,2.129291E0,2.2647326E0,0E0,0E0,0E0,0E0,0E0,0E0,0E0,0E0],"parents":[2147483647,0,0,2,2,3,3,4,4,5,5,6,6,8,8,10,10,11,11,12,12,15,15,17,17,19,19,20,20],"right_children":[2,-1,4,6,8,10,12,-1,14,-1,16,18,20,-1,-1,22,-1,24,-1,26,28,-1,-1,-1,-1,-1,-1,-1,-1],"split_conditions":[7.01E2,-1.529021E-1,7.03E2,3.3E1,7.75E2,4.9E1,5.1E1,1.5912005E-1,7.82E2,-1.2998621E-1,8E-3,4E0,1E0,-2.1307155E-2,1.1172821E-1,1E0,-2.4213744E-2,2.05E4,-1.7492542E-1,5E0,4.1E1,3.0305544E-1,1.400685E-2,1.4053272E-1,-7.9132855E-2,2.9232567E-2,-1.20481E-1,2.10775E-1,1.8145833E-3],"split_indices":[26,0,26,21,26,3,21,0,26,0,28,0,41,0,0,33,0,20,0,7,19,0,0,0,0,0,0,0,0],"split_type":[0,0,0,0,0,0,0,0,0,0,0,0,0,0,0,0,0,0,0,0,0,0,0,0,0,0,0,0,0],"sum_hessian":[1.7623315E3,1.1403212E3,6.220104E2,1.9600394E2,4.2600644E2,8.939267E0,1.8706468E2,4.227628E2,3.2436705E0,2.0484228E0,6.8908443E0,1.3485591E1,1.7357909E2,1.1333942E0,2.1102762E0,5.041944E0,1.8489001E0,5.6535845E0,7.8320065E0,1.5580695E2,1.777214E1,3.9945145E0,1.0474294E0,3.048346E0,2.6052387E0,1.4771417E2,8.092773E0,8.930006E0,8.842134E0],"tree_param":{"num_deleted":"0","num_feature":"47","num_nodes":"29","size_leaf_vector":"1"}},{"base_weights":[3.3199814E-1,-1.52607E-1,4.5117542E-1,1.59414E-1,-1.5302217E-1],"categories":[],"categories_nodes":[],"categories_segments":[],"categories_sizes":[],"default_left":[0,0,0,0,0],"id":37,"left_children":[1,-1,3,-1,-1],"loss_changes":[2.8251477E2,0E0,1.9055951E2,0E0,0E0],"parents":[2147483647,0,0,2,2],"right_children":[2,-1,4,-1,-1],"split_conditions":[6.69E2,-1.52607E-1,7.01E2,1.59414E-1,-1.5302217E-1],"split_indices":[26,0,26,0,0],"split_type":[0,0,0,0,0],"sum_hessian":[2.8164736E3,3.4928867E2,2.4671848E3,2.2775947E3,1.8959026E2],"tree_param":{"num_deleted":"0","num_feature":"47","num_nodes":"5","size_leaf_vector":"1"}},{"base_weights":[-1.3595182E-1,2.8417864E-1,-3.8618356E-1,-5.0260276E-1,1.5919523E-1,-1.5284148E-1,-1.2765859E-1,1.4824455E-2,-1.5212055E-1,1.1547516E-1,-4.9725983E-1,-1.3236135E-1,1.2813686E-1,-1.5201384E-1,5.0252624E-2,1.5663648E-1,-3.7234208E-1,4.3355942E-1,1.0103776E-1,9.826792E-2,-8.300339E-2,6.563407E-4,-2.42036E-1,1.648848E-2,1.9961488E-1,3.843345E-2,-4.2573318E-2],"categories":[],"categories_nodes":[],"categories_segments":[],"categories_sizes":[],"default_left":[0,0,0,0,0,0,0,0,0,0,0,0,0,0,0,0,0,0,0,0,0,0,0,0,0,0,0],"id":38,"left_children":[1,3,5,7,-1,-1,9,-1,-1,11,13,15,17,-1,19,-1,21,23,25,-1,-1,-1,-1,-1,-1,-1,-1],"loss_changes":[1.9645218E2,1.3556773E2,3.7255066E1,4.3660736E-1,0E0,0E0,3.415302E1,0E0,0E0,7.37694E-1,8.056488E-1,2.025059E0,1.7689643E0,0E0,4.0505818E-1,0E0,1.4844185E0,1.5033579E0,1.3499732E0,0E0,0E0,0E0,0E0,0E0,0E0,0E0,0E0],"parents":[2147483647,0,0,1,1,2,2,3,3,6,6,9,9,10,10,11,11,12,12,14,14,16,16,17,17,18,18],"right_children":[2,4,6,8,-1,-1,10,-1,-1,12,14,16,18,-1,20,-1,22,24,26,-1,-1,-1,-1,-1,-1,-1,-1],"split_conditions":[6.69E2,6.59E2,7.01E2,5.09E2,1.5919523E-1,-1.5284148E-1,7.03E2,1.4824455E-2,-1.5212055E-1,3.3E1,7.75E2,4.9E1,5.1E1,-1.5201384E-1,7.77E2,1.5663648E-1,5.15E-1,4E0,1E0,9.826792E-2,-8.300339E-2,6.563407E-4,-2.42036E-1,1.648848E-2,1.9961488E-1,3.843345E-2,-4.2573318E-2],"split_indices":[26,26,26,26,0,0,26,0,0,21,26,3,21,0,26,0,29,0,41,0,0,0,0,0,0,0,0],"split_type":[0,0,0,0,0,0,0,0,0,0,0,0,0,0,0,0,0,0,0,0,0,0,0,0,0,0,0],"sum_hessian":[1.866616E3,6.9671686E2,1.1698992E3,1.6594682E2,5.3077E2,7.914796E2,3.784195E2,1.2509323E0,1.6469589E2,2.2867706E2,1.4974243E2,1.06555E1,2.1802158E2,1.4727422E2,2.4682229E0,2.5433946E0,8.112106E0,1.654547E1,2.014761E2,1.3344223E0,1.1338004E0,4.8907814E0,3.2213247E0,6.7533903E0,9.792078E0,1.8170045E2,1.9775652E1],"tree_param":{"num_deleted":"0","num_feature":"47","num_nodes":"27","size_leaf_vector":"1"}},{"base_weights":[-2.0892878E-1,5.2938205E-1,-1.5303199E-1,2.4675123E-2,1.5916982E-1],"categories":[],"categories_nodes":[],"categories_segments":[],"categories_sizes":[],"default_left":[0,0,0,0,0],"id":39,"left_children":[1,3,-1,-1,-1],"loss_changes":[3.6513483E2,2.0829773E-1,0E0,0E0,0E0],"parents":[2147483647,0,0,1,1],"right_children":[2,4,-1,-1,-1],"split_conditions":[6.59E2,5.09E2,-1.5303199E-1,2.4675123E-2,1.5916982E-1],"split_indices":[26,26,0,0,0],"split_type":[0,0,0,0,0],"sum_hessian":[1.639853E3,4.749058E2,1.1649473E3,1.4402854E0,4.734655E2],"tree_param":{"num_deleted":"0","num_feature":"47","num_nodes":"5","size_leaf_vector":"1"}},{"base_weights":[-1.814323E-1,-1.5206829E-1,3.5387143E-1,7.987454E-2,5.195402E-1,8.6952046E-2,-1.1977041E-1,1.5646304E-1,2.1154009E-1,7.00235E-2,3.7687668E-1,-1.9962111E-2,1.0247892E-1,1.0434529E-1,-1.4121607E-1,6.5296465E-1,-2.9843485E-1,2.6605533E-2,1.455239E-1,-1.3136245E-1,6.8433516E-2,-4.4628885E-3,2.4346255E-1,1.7477212E-2,-1.3669065E-1],"categories":[],"categories_nodes":[],"categories_segments":[],"categories_sizes":[],"default_left":[0,0,0,0,0,0,0,0,0,0,0,0,0,0,0,0,0,0,0,0,0,0,0,0,0],"id":40,"left_children":[1,-1,3,5,7,9,-1,-1,11,13,15,-1,-1,17,19,21,23,-1,-1,-1,-1,-1,-1,-1,-1],"loss_changes":[2.3915541E2,0E0,2.3527893E1,7.021512E-1,8.920288E-2,9.2962825E-1,0E0,0E0,1.5915552E-1,1.3579633E0,2.15588E0,0E0,0E0,9.10661E-1,2.9835994E0,8.3594227E-1,2.3617145E-1,0E0,0E0,0E0,0E0,0E0,0E0,0E0,0E0],"parents":[2147483647,0,0,2,2,3,3,4,4,5,5,8,8,9,9,10,10,13,13,14,14,15,15,16,16],"right_children":[2,-1,4,6,8,10,-1,-1,12,14,16,-1,-1,18,20,22,24,-1,-1,-1,-1,-1,-1,-1,-1],"split_conditions":[7.01E2,-1.5206829E-1,7.03E2,2.013E3,7.75E2,1.56E2,-1.1977041E-1,1.5646304E-1,7.82E2,1.12E2,3E0,-1.9962111E-2,1.0247892E-1,1.07E2,4.12E-1,2E0,1.02E2,2.6605533E-2,1.455239E-1,-1.3136245E-1,6.8433516E-2,-4.4628885E-3,2.4346255E-1,1.7477212E-2,-1.3669065E-1],"split_indices":[26,0,26,5,26,3,0,0,26,3,7,0,0,3,29,1,21,0,0,0,0,0,0,0,0],"split_type":[0,0,0,0,0,0,0,0,0,0,0,0,0,0,0,0,0,0,0,0,0,0,0,0,0],"sum_hessian":[1.3706832E3,8.524506E2,5.182326E2,1.9583179E2,3.2240085E2,1.9378761E2,2.0441616E0,3.1962866E2,2.772193E0,1.8426973E2,9.517892E0,1.0390072E0,1.7331856E0,1.5894989E2,2.5319838E1,6.77937E0,2.7385218E0,1.5385455E2,5.0953393E0,1.3938379E1,1.1381459E1,1.4747429E0,5.304627E0,1.0302547E0,1.7082671E0],"tree_param":{"num_deleted":"0","num_feature":"47","num_nodes":"25","size_leaf_vector":"1"}},{"base_weights":[3.2559946E-1,-1.516738E-1,4.4211608E-1,1.568486E-1,-1.5200879E-1],"categories":[],"categories_nodes":[],"categories_segments":[],"categories_sizes":[],"default_left":[0,0,0,0,0],"id":41,"left_children":[1,-1,3,-1,-1],"loss_changes":[2.064357E2,0E0,1.4331995E2,0E0,0E0],"parents":[2147483647,0,0,2,2],"right_children":[2,-1,4,-1,-1],"split_conditions":[6.69E2,-1.516738E-1,7.01E2,1.568486E-1,-1.5200879E-1],"split_indices":[26,0,26,0,0],"split_type":[0,0,0,0,0],"sum_hessian":[2.1282766E3,2.6125537E2,1.8670212E3,1.7210645E3,1.4595677E2],"tree_param":{"num_deleted":"0","num_feature":"47","num_nodes":"5","size_leaf_vector":"1"}},{"base_weights":[-1.2890634E-1,2.7996343E-1,-3.6063847E-1,-4.9756742E-1,1.5655977E-1,-1.5198816E-1,-1.0290943E-1,1.3570889E-2,-1.5102878E-1,9.388504E-2,-4.9219543E-1,3.329936E-2,1.4740625E-1,-1.5088698E-1,4.6058457E-2,-2.3617415E-2,2.4001382E-1,2.1873178E-1,-8.7975405E-2,-2.3014557E-2,4.562414E-2,4.0628683E-2,-4.562584E-2,1.7046988E-2,1.6027106E-1,1.0417945E-2,9.429455E-2,5.3817224E-2,-1.1622075E-1],"categories":[],"categories_nodes":[],"categories_segments":[],"categories_sizes":[],"default_left":[0,0,0,0,0,0,0,0,0,0,0,0,0,0,0,0,0,0,0,0,0,0,0,0,0,0,0,0,0],"id":42,"left_children":[1,3,5,7,-1,-1,9,-1,-1,11,13,15,17,-1,19,21,23,25,27,-1,-1,-1,-1,-1,-1,-1,-1,-1,-1],"loss_changes":[1.3790572E2,9.932306E1,3.489219E1,4.2206383E-1,0E0,0E0,2.5871017E1,0E0,0E0,7.238586E-1,6.7972374E-1,1.2611426E0,2.0177474E0,0E0,5.25118E-2,1.7487879E0,1.21618E0,1.6008811E0,2.3427746E0,0E0,0E0,0E0,0E0,0E0,0E0,0E0,0E0,0E0,0E0],"parents":[2147483647,0,0,1,1,2,2,3,3,6,6,9,9,10,10,11,11,12,12,14,14,15,15,16,16,17,17,18,18],"right_children":[2,4,6,8,-1,-1,10,-1,-1,12,14,16,18,-1,20,22,24,26,28,-1,-1,-1,-1,-1,-1,-1,-1,-1,-1],"split_conditions":[6.69E2,6.59E2,7.01E2,5.09E2,1.5655977E-1,-1.5198816E-1,7.03E2,1.3570889E-2,-1.5102878E-1,7.1E1,7.75E2,2.88E2,3E0,-1.5088698E-1,3.6E4,5E1,1.29E2,3E0,3.85E-1,-2.3014557E-2,4.562414E-2,4.0628683E-2,-4.562584E-2,1.7046988E-2,1.6027106E-1,1.0417945E-2,9.429455E-2,5.3817224E-2,-1.1622075E-1],"split_indices":[26,26,26,26,0,0,26,0,0,3,26,5,2,0,20,3,21,17,29,0,0,0,0,0,0,0,0,0,0],"split_type":[0,0,0,0,0,0,0,0,0,0,0,0,0,0,0,0,0,0,0,0,0,0,0,0,0,0,0,0,0],"sum_hessian":[1.4534304E3,5.256904E2,9.2774E2,1.2449085E2,4.011996E2,5.9164264E2,3.3609738E2,1.2582723E0,1.2323258E2,2.2374643E2,1.1235097E2,1.0570791E2,1.1803851E2,1.1021308E2,2.137884E0,8.3580574E1,2.2127333E1,9.064265E1,2.7395864E1,1.1187693E0,1.0191146E0,3.7321625E1,4.6258953E1,1.4372061E1,7.755272E0,3.1454206E1,5.9188442E1,1.4684544E1,1.2711321E1],"tree_param":{"num_deleted":"0","num_feature":"47","num_nodes":"29","size_leaf_vector":"1"}},{"base_weights":[-2.0798457E-1,5.2013665E-1,-1.5220487E-1,2.033305E-2,1.5652299E-1],"categories":[],"categories_nodes":[],"categories_segments":[],"categories_sizes":[],"default_left":[0,0,0,0,0],"id":43,"left_children":[1,3,-1,-1,-1],"loss_changes":[2.6954398E2,2.2658539E-1,0E0,0E0,0E0],"parents":[2147483647,0,0,1,1],"right_children":[2,4,-1,-1,-1],"split_conditions":[6.59E2,5.09E2,-1.5220487E-1,2.033305E-2,1.5652299E-1],"split_indices":[26,26,0,0,0],"split_type":[0,0,0,0,0],"sum_hessian":[1.2343772E3,3.5942917E2,8.7494806E2,1.4248934E0,3.5800427E2],"tree_param":{"num_deleted":"0","num_feature":"47","num_nodes":"5","size_leaf_vector":"1"}},{"base_weights":[-1.6959812E-1,-1.5142527E-1,3.1688267E-1,7.22138E-2,5.1231873E-1,7.848739E-2,-1.13800295E-1,1.5446639E-1,1.8624525E-1,6.383708E-2,3.3600163E-1,7.233348E-2,1.5522185E-2,9.067168E-2,-1.0937941E-1,5.8995515E-1,-2.8168026E-1,3.147764E-2,-7.8498006E-2,-1.1595607E-1,5.924021E-2,-1.5856824E-3,2.1940579E-1,-1.31207E-1,1.6527077E-2],"categories":[],"categories_nodes":[],"categories_segments":[],"categories_sizes":[],"default_left":[0,0,0,0,0,0,0,0,0,0,0,0,0,0,0,0,0,0,0,0,0,0,0,0,0],"id":44,"left_children":[1,-1,3,5,7,9,-1,-1,11,13,15,-1,-1,17,19,21,23,-1,-1,-1,-1,-1,-1,-1,-1],"loss_changes":[1.7543149E2,0E0,2.0960083E1,5.8545864E-1,1.0847473E-1,7.1157897E-1,0E0,0E0,1.3160802E-2,8.701847E-1,1.7700025E0,0E0,0E0,8.3498454E-1,2.2260482E0,6.408851E-1,2.1575457E-1,0E0,0E0,0E0,0E0,0E0,0E0,0E0,0E0],"parents":[2147483647,0,0,2,2,3,3,4,4,5,5,8,8,9,9,10,10,13,13,14,14,15,15,16,16],"right_children":[2,-1,4,6,8,10,-1,-1,12,14,16,-1,-1,18,20,22,24,-1,-1,-1,-1,-1,-1,-1,-1],"split_conditions":[7.01E2,-1.5142527E-1,7.03E2,2.013E3,7.75E2,1.56E2,-1.13800295E-1,1.5446639E-1,5.4E1,1.12E2,3E0,7.233348E-2,1.5522185E-2,4E0,4.12E-1,2E0,1.2E1,3.147764E-2,-7.8498006E-2,-1.1595607E-1,5.924021E-2,-1.5856824E-3,2.1940579E-1,-1.31207E-1,1.6527077E-2],"split_indices":[26,0,26,5,26,3,0,0,5,3,7,0,0,32,29,1,6,0,0,0,0,0,0,0,0],"split_type":[0,0,0,0,0,0,0,0,0,0,0,0,0,0,0,0,0,0,0,0,0,0,0,0,0],"sum_hessian":[1.0739861E3,6.358739E2,4.381122E2,1.9515932E2,2.4295291E2,1.9329988E2,1.8594335E0,2.4047908E2,2.4738255E0,1.8407549E2,9.224392E0,1.1941327E0,1.2796929E0,1.5979645E2,2.4279036E1,6.5686483E0,2.6557436E0,1.5425804E2,5.5384045E0,1.2620595E1,1.1658442E1,1.4456239E0,5.1230245E0,1.61193E0,1.0438136E0],"tree_param":{"num_deleted":"0","num_feature":"47","num_nodes":"25","size_leaf_vector":"1"}},{"base_weights":[3.2020456E-1,-1.5089731E-1,4.3462545E-1,1.549756E-1,-1.5112098E-1],"categories":[],"categories_nodes":[],"categories_segments":[],"categories_sizes":[],"default_left":[0,0,0,0,0],"id":45,"left_children":[1,-1,3,-1,-1],"loss_changes":[1.5115678E2,0E0,1.0850464E2,0E0,0E0],"parents":[2147483647,0,0,2,2],"right_children":[2,-1,4,-1,-1],"split_conditions":[6.69E2,-1.5089731E-1,7.01E2,1.549756E-1,-1.5112098E-1],"split_indices":[26,0,26,0,0],"split_type":[0,0,0,0,0],"sum_hessian":[1.6014733E3,1.9501941E2,1.4064539E3,1.2938904E3,1.1256347E2],"tree_param":{"num_deleted":"0","num_feature":"47","num_nodes":"5","size_leaf_vector":"1"}},{"base_weights":[-1.2114248E-1,2.7665597E-1,-3.3229035E-1,-4.9243292E-1,1.5459256E-1,-1.5131886E-1,-8.1012286E-2,1.2402515E-2,-1.5004058E-1,7.661017E-2,-4.8645774E-1,5.6948613E-2,2.1420409E-1,-1.498522E-1,1.2445621E-2,6.719176E-2,-2.791297E-1,4.0639836E-1,4.9875498E-2,3.416424E-3,4.6209805E-2,1.3900943E-1,-2.2916138E-1,-3.342982E-2,1.7165509E-1,9.1907084E-2,-7.999504E-2],"categories":[],"categories_nodes":[],"categories_segments":[],"categories_sizes":[],"default_left":[0,0,0,0,0,0,0,0,0,0,0,0,0,0,0,0,0,0,0,0,0,0,0,0,0,0,0],"id":46,"left_children":[1,3,5,7,-1,-1,9,-1,-1,11,13,15,17,-1,-1,19,21,23,25,-1,-1,-1,-1,-1,-1,-1,-1],"loss_changes":[9.589648E1,7.294555E1,3.2202133E1,4.083786E-1,0E0,0E0,1.9481941E1,0E0,0E0,5.8284414E-1,6.084614E-1,6.8596333E-1,8.368467E-1,0E0,0E0,9.136079E-1,2.4869976E0,1.1256058E0,1.3619227E0,0E0,0E0,0E0,0E0,0E0,0E0,0E0,0E0],"parents":[2147483647,0,0,1,1,2,2,3,3,6,6,9,9,10,10,11,11,12,12,15,15,16,16,17,17,18,18],"right_children":[2,4,6,8,-1,-1,10,-1,-1,12,14,16,18,-1,-1,20,22,24,26,-1,-1,-1,-1,-1,-1,-1,-1],"split_conditions":[6.69E2,6.59E2,7.01E2,5.09E2,1.5459256E-1,-1.5131886E-1,7.03E2,1.2402515E-2,-1.5004058E-1,1E0,7.75E2,4.17E-1,3.5E1,-1.498522E-1,1.2445621E-2,6E0,1E0,1.58E4,8.3E1,3.416424E-3,4.6209805E-2,1.3900943E-1,-2.2916138E-1,-3.342982E-2,1.7165509E-1,9.1907084E-2,-7.999504E-2],"split_indices":[26,26,26,26,0,0,26,0,0,43,26,28,19,0,0,0,1,20,5,0,0,0,0,0,0,0,0],"split_type":[0,0,0,0,0,0,0,0,0,0,0,0,0,0,0,0,0,0,0,0,0,0,0,0,0,0,0],"sum_hessian":[1.1396078E3,3.9504343E2,7.4456433E2,9.330205E1,3.017414E2,4.413006E2,3.0326373E2,1.26506E0,9.203699E1,2.1895358E2,8.431015E1,1.9281506E2,2.613852E1,8.232902E1,1.9811283E0,1.8788858E2,4.926481E0,1.1368798E1,1.4769722E1,1.1507373E2,7.281485E1,1.9633116E0,2.963169E0,2.8365786E0,8.53222E0,8.176452E0,6.5932703E0],"tree_param":{"num_deleted":"0","num_feature":"47","num_nodes":"27","size_leaf_vector":"1"}},{"base_weights":[-2.0757377E-1,5.1295644E-1,-1.5156773E-1,1.6720567E-2,1.5454088E-1],"categories":[],"categories_nodes":[],"categories_segments":[],"categories_sizes":[],"default_left":[0,0,0,0,0],"id":47,"left_children":[1,3,-1,-1,-1],"loss_changes":[1.9928242E2,2.4215698E-1,0E0,0E0,0E0],"parents":[2147483647,0,0,1,1],"right_children":[2,4,-1,-1,-1],"split_conditions":[6.59E2,5.09E2,-1.5156773E-1,1.6720567E-2,1.5454088E-1],"split_indices":[26,26,0,0,0],"split_type":[0,0,0,0,0],"sum_hessian":[9.269891E2,2.707814E2,6.5620764E2,1.4108768E0,2.6937054E2],"tree_param":{"num_deleted":"0","num_feature":"47","num_nodes":"5","size_leaf_vector":"1"}},{"base_weights":[-1.563715E-1,-1.5091355E-1,2.7924135E-1,6.451356E-2,5.0625044E-1,7.5960117E-3,1.1414017E-1,1.5291654E-1,1.625805E-1,4.7250576E-2,-4.5755917E-1,-2.492033E-1,1.5220733E-1,6.550644E-2,1.1365809E-2,-7.446849E-2,2.1297045E-1,-1.6973582E-1,1.2320355E-2,1.2911202E-1,-4.7807243E-1,-3.6096188E-1,1.7767528E-1,2.4208924E-2,-1.1567675E-1,1.3312669E-1,6.6333045E-3,-1.9949136E-2,-1.6648799E-1,-1.5751567E-1,1.1834865E-2,3.67541E-2,1.4410415E-1],"categories":[],"categories_nodes":[],"categories_segments":[],"categories_sizes":[],"default_left":[0,0,0,0,0,0,0,0,0,0,0,0,0,0,0,0,0,0,0,0,0,0,0,0,0,0,0,0,0,0,0,0,0],"id":48,"left_children":[1,-1,3,5,7,9,11,-1,13,15,17,19,21,-1,-1,23,25,-1,-1,-1,27,29,31,-1,-1,-1,-1,-1,-1,-1,-1,-1,-1],"loss_changes":[1.2875066E2,0E0,1.839541E1,5.5113786E-1,1.3618469E-1,1.7204096E0,1.480942E0,0E0,1.4709473E-2,1.7459383E0,4.1870034E-1,1.8035502E0,1.3064463E0,0E0,0E0,2.4540572E0,1.6014055E0,0E0,0E0,0E0,2.2127604E-1,3.3768612E-1,1.4643309E0,0E0,0E0,0E0,0E0,0E0,0E0,0E0,0E0,0E0,0E0],"parents":[2147483647,0,0,2,2,3,3,4,4,5,5,6,6,8,8,9,9,10,10,11,11,12,12,15,15,16,16,20,20,21,21,22,22],"right_children":[2,-1,4,6,8,10,12,-1,14,16,18,20,22,-1,-1,24,26,-1,-1,-1,28,30,32,-1,-1,-1,-1,-1,-1,-1,-1,-1,-1],"split_conditions":[7.01E2,-1.5091355E-1,7.03E2,1.07E2,7.75E2,1.02E2,1.54E4,1.5291654E-1,5.4E1,5.83E-1,1E2,4.6E1,2.7E1,6.550644E-2,1.1365809E-2,3.7E1,3E0,-1.6973582E-1,1.2320355E-2,1.2911202E-1,1.23E2,6.5E1,4.2E1,2.4208924E-2,-1.1567675E-1,1.3312669E-1,6.6333045E-3,-1.9949136E-2,-1.6648799E-1,-1.5751567E-1,1.1834865E-2,3.67541E-2,1.4410415E-1],"split_indices":[26,0,26,21,26,21,20,0,5,29,3,5,19,0,0,19,32,0,0,0,21,3,8,0,0,0,0,0,0,0,0,0,0],"split_type":[0,0,0,0,0,0,0,0,0,0,0,0,0,0,0,0,0,0,0,0,0,0,0,0,0,0,0,0,0,0,0,0,0],"sum_hessian":[8.506357E2,4.7358664E2,3.7704907E2,1.944259E2,1.8262317E2,9.109765E1,1.03328255E2,1.8031866E2,2.3045154E0,8.4769455E1,6.3281918E0,9.27299E0,9.405527E1,1.0733161E0,1.2311993E0,4.919039E1,3.5579063E1,5.0889487E0,1.2392431E0,2.1143775E0,7.158613E0,3.8242831E0,9.023098E1,3.3315575E1,1.5874818E1,1.5505245E1,2.0073816E1,1.4203587E0,5.7382545E0,2.4918358E0,1.3324473E0,7.7509705E1,1.2721281E1],"tree_param":{"num_deleted":"0","num_feature":"47","num_nodes":"33","size_leaf_vector":"1"}},{"base_weights":[3.1538385E-1,-1.5020669E-1,4.2808044E-1,1.5359212E-1,-1.5029687E-1],"categories":[],"categories_nodes":[],"categories_segments":[],"categories_sizes":[],"default_left":[0,0,0,0,0],"id":49,"left_children":[1,-1,3,-1,-1],"loss_changes":[1.10814835E2,0E0,8.265813E1,0E0,0E0],"parents":[2147483647,0,0,2,2],"right_children":[2,-1,4,-1,-1],"split_conditions":[6.69E2,-1.5020669E-1,7.01E2,1.5359212E-1,-1.5029687E-1],"split_indices":[26,0,26,0,0],"split_type":[0,0,0,0,0],"sum_hessian":[1.2015896E3,1.4538275E2,1.0562068E3,9.691438E2,8.706298E1],"tree_param":{"num_deleted":"0","num_feature":"47","num_nodes":"5","size_leaf_vector":"1"}},{"base_weights":[-1.1241066E-1,2.7391684E-1,-3.0109E-1,-4.8678088E-1,1.530826E-1,-1.5077177E-1,-6.1948977E-2,1.1308059E-2,-1.4906825E-1,6.2977485E-2,-4.7972244E-1,1.1569279E-1,1.5081005E-2,-1.488184E-1,1.0931557E-2,8.015571E-2,5.214749E-1,3.4024084E-1,-2.1735402E-2,5.687288E-2,-2.2399653E-2,7.2648074E-3,1.852697E-1,-1.01793334E-1,1.6138548E-1,6.812542E-3,-8.264599E-2],"categories":[],"categories_nodes":[],"categories_segments":[],"categories_sizes":[],"default_left":[0,0,0,0,0,0,0,0,0,0,0,0,0,0,0,0,0,0,0,0,0,0,0,0,0,0,0],"id":50,"left_children":[1,3,5,7,-1,-1,9,-1,-1,11,13,15,17,-1,-1,19,21,23,25,-1,-1,-1,-1,-1,-1,-1,-1],"loss_changes":[6.595528E1,5.365894E1,2.9246826E1,3.949623E-1,0E0,0E0,1.4591287E1,0E0,0E0,5.4276216E-1,5.606823E-1,1.4364848E0,1.3738228E0,0E0,0E0,1.6309805E0,3.708024E-1,1.7503777E0,1.1731952E0,0E0,0E0,0E0,0E0,0E0,0E0,0E0,0E0],"parents":[2147483647,0,0,1,1,2,2,3,3,6,6,9,9,10,10,11,11,12,12,15,15,16,16,17,17,18,18],"right_children":[2,4,6,8,-1,-1,10,-1,-1,12,14,16,18,-1,-1,20,22,24,26,-1,-1,-1,-1,-1,-1,-1,-1],"split_conditions":[6.69E2,6.59E2,7.01E2,5.09E2,1.530826E-1,-1.5077177E-1,7.03E2,1.1308059E-2,-1.4906825E-1,1.07E2,7.75E2,1.02E2,1.54E4,-1.488184E-1,1.0931557E-2,5.83E-1,1.54E-1,4.6E1,4.2E1,5.687288E-2,-2.2399653E-2,7.2648074E-3,1.852697E-1,-1.01793334E-1,1.6138548E-1,6.812542E-3,-8.264599E-2],"split_indices":[26,26,26,26,0,0,26,0,0,21,26,21,20,0,0,29,29,5,8,0,0,0,0,0,0,0,0],"split_type":[0,0,0,0,0,0,0,0,0,0,0,0,0,0,0,0,0,0,0,0,0,0,0,0,0,0,0],"sum_hessian":[9.0270386E2,2.9605966E2,6.066442E2,6.9931656E1,2.2612802E2,3.2864807E2,2.7799615E2,1.2713695E0,6.8660286E1,2.1465675E2,6.3339386E1,1.0151402E2,1.1314273E2,6.1433666E1,1.9057193E0,9.444074E1,7.0732794E0,1.0669441E1,1.0247329E2,5.5202007E1,3.9238735E1,1.3482499E0,5.7250295E0,2.2431855E0,8.426255E0,8.7975174E1,1.4498117E1],"tree_param":{"num_deleted":"0","num_feature":"47","num_nodes":"27","size_leaf_vector":"1"}},{"base_weights":[-2.07581E-1,5.070846E-1,-1.5106298E-1,1.37221785E-2,1.530113E-1],"categories":[],"categories_nodes":[],"categories_segments":[],"categories_sizes":[],"default_left":[0,0,0,0,0],"id":51,"left_children":[1,3,-1,-1,-1],"loss_changes":[1.4751274E2,2.5511932E-1,0E0,0E0,0E0],"parents":[2147483647,0,0,1,1],"right_children":[2,4,-1,-1,-1],"split_conditions":[6.59E2,5.09E2,-1.5106298E-1,1.37221785E-2,1.530113E-1],"split_indices":[26,26,0,0,0],"split_type":[0,0,0,0,0],"sum_hessian":[6.9520624E2,2.0338217E2,4.9182404E2,1.3984473E0,2.0198372E2],"tree_param":{"num_deleted":"0","num_feature":"47","num_nodes":"5","size_leaf_vector":"1"}},{"base_weights":[-1.4200279E-1,-1.5048617E-1,2.4100237E-1,5.584006E-2,5.008412E-1,7.976568E-2,-5.711319E-2,1.5165646E-1,1.416308E-1,9.724435E-2,-4.036976E-1,-1.2109709E-1,5.3695554E-1,5.4054264E-2,9.023253E-3,3.5725445E-1,7.2765976E-2,2.0765696E-2,-1.59579E-1,-3.6425773E-2,-1.6332957E-1,2.1248133E-1,2.5185635E-2,1.364886E-1,-9.75053E-2,-6.168368E-3,4.918466E-2,-6.3970946E-2,9.966265E-2],"categories":[],"categories_nodes":[],"categories_segments":[],"categories_sizes":[],"default_left":[0,0,0,0,0,0,0,0,0,0,0,0,0,0,0,0,0,0,0,0,0,0,0,0,0,0,0,0,0],"id":52,"left_children":[1,-1,3,5,7,9,11,-1,13,15,17,19,21,-1,-1,23,25,-1,-1,27,-1,-1,-1,-1,-1,-1,-1,-1,-1],"loss_changes":[9.439723E1,0E0,1.5951803E1,5.317027E-1,1.6053009E-1,1.4029884E0,1.3831716E0,0E0,8.191727E-3,9.7043407E-1,3.900677E-1,1.131572E0,2.1649706E-1,0E0,0E0,1.0288224E0,1.2317038E0,0E0,0E0,1.8854159E0,0E0,0E0,0E0,0E0,0E0,0E0,0E0,0E0,0E0],"parents":[2147483647,0,0,2,2,3,3,4,4,5,5,6,6,8,8,9,9,10,10,11,11,12,12,15,15,16,16,19,19],"right_children":[2,-1,4,6,8,10,12,-1,14,16,18,20,22,-1,-1,24,26,-1,-1,28,-1,-1,-1,-1,-1,-1,-1,-1,-1],"split_conditions":[7.01E2,-1.5048617E-1,7.03E2,7.78E-1,7.75E2,1E0,1E0,1.5165646E-1,3.8E-2,2E0,3.1E1,5E0,7.2E1,5.4054264E-2,9.023253E-3,1.664E3,4E0,2.0765696E-2,-1.59579E-1,1E0,-1.6332957E-1,2.1248133E-1,2.5185635E-2,1.364886E-1,-9.75053E-2,-6.168368E-3,4.918466E-2,-6.3970946E-2,9.966265E-2],"split_indices":[26,0,26,29,26,42,24,0,28,0,19,17,21,0,0,5,17,0,0,18,0,0,0,0,0,0,0,0,0],"split_type":[0,0,0,0,0,0,0,0,0,0,0,0,0,0,0,0,0,0,0,0,0,0,0,0,0,0,0,0,0],"sum_hessian":[6.8347406E2,3.5233963E2,3.311344E2,1.9406076E2,1.3707365E2,1.6038255E2,3.367821E1,1.3490855E2,2.165092E0,1.5555753E2,4.825023E0,3.112235E1,2.555862E0,1.1518432E0,1.0132488E0,1.2214977E1,1.4334256E2,1.1274037E0,3.6976192E0,2.68401E1,4.2822514E0,1.4456499E0,1.1102122E0,1.0976246E1,1.2387311E0,7.122109E1,7.212146E1,1.8424555E1,8.4155445E0],"tree_param":{"num_deleted":"0","num_feature":"47","num_nodes":"29","size_leaf_vector":"1"}},{"base_weights":[3.107984E-1,-1.4954007E-1,4.2200124E-1,1.5255529E-1,-1.4947844E-1],"categories":[],"categories_nodes":[],"categories_segments":[],"categories_sizes":[],"default_left":[0,0,0,0,0],"id":53,"left_children":[1,-1,3,-1,-1],"loss_changes":[8.128301E1,0E0,6.3357407E1,0E0,0E0],"parents":[2147483647,0,0,2,2],"right_children":[2,-1,4,-1,-1],"split_conditions":[6.69E2,-1.4954007E-1,7.01E2,1.5255529E-1,-1.4947844E-1],"split_indices":[26,0,26,0,0],"split_type":[0,0,0,0,0],"sum_hessian":[8.998816E2,1.0829501E2,7.915866E2,7.239715E2,6.761512E1],"tree_param":{"num_deleted":"0","num_feature":"47","num_nodes":"5","size_leaf_vector":"1"}},{"base_weights":[-1.0227507E-1,2.7148077E-1,-2.669735E-1,-4.8018318E-1,1.5187614E-1,-1.5029682E-1,-4.4867173E-2,1.02820955E-2,-1.480287E-1,5.3263728E-2,-4.718402E-1,4.3652616E-2,3.1388652E-1,-1.4769825E-1,9.5865E-3,5.863335E-2,-3.542174E-1,1.4757311E-1,6.082827E-3,4.5781456E-2,6.135359E-3,-1.2993842E-1,1.34777045E-2,-1.05375975E-1,1.0556306E-1],"categories":[],"categories_nodes":[],"categories_segments":[],"categories_sizes":[],"default_left":[0,0,0,0,0,0,0,0,0,0,0,0,0,0,0,0,0,0,0,0,0,0,0,0,0],"id":54,"left_children":[1,3,5,7,-1,-1,9,-1,-1,11,13,15,17,-1,-1,19,21,-1,23,-1,-1,-1,-1,-1,-1],"loss_changes":[4.475375E1,3.9510246E1,2.6191193E1,3.8129044E-1,0E0,0E0,1.0912715E1,0E0,0E0,5.178057E-1,5.179949E-1,1.2474408E0,4.016884E-1,0E0,0E0,7.11595E-1,2.591431E-1,0E0,5.830977E-1,0E0,0E0,0E0,0E0,0E0,0E0],"parents":[2147483647,0,0,1,1,2,2,3,3,6,6,9,9,10,10,11,11,12,12,15,15,16,16,18,18],"right_children":[2,4,6,8,-1,-1,10,-1,-1,12,14,16,18,-1,-1,20,22,-1,24,-1,-1,-1,-1,-1,-1],"split_conditions":[6.69E2,6.59E2,7.01E2,5.09E2,1.5187614E-1,-1.5029682E-1,7.03E2,1.02820955E-2,-1.480287E-1,1.664E3,7.75E2,6.9E1,1E0,-1.4769825E-1,9.5865E-3,1E0,3.05E4,1.4757311E-1,1E0,4.5781456E-2,6.135359E-3,-1.2993842E-1,1.34777045E-2,-1.05375975E-1,1.0556306E-1],"split_indices":[26,26,26,26,0,0,26,0,0,5,26,4,18,0,0,1,20,0,1,0,0,0,0,0,0],"split_type":[0,0,0,0,0,0,0,0,0,0,0,0,0,0,0,0,0,0,0,0,0,0,0,0,0],"sum_hessian":[7.248519E2,2.2151407E2,5.033379E2,5.2471794E1,1.6904227E2,2.4448636E2,2.5885153E2,1.2772393E0,5.1194553E1,2.111893E2,4.766223E1,2.0480414E2,6.3851666E0,4.5821613E1,1.8406174E0,1.9819429E2,6.6098456E0,3.666468E0,2.7186987E0,5.6396946E1,1.4179733E2,5.447692E0,1.1621538E0,1.3292711E0,1.3894277E0],"tree_param":{"num_deleted":"0","num_feature":"47","num_nodes":"25","size_leaf_vector":"1"}},{"base_weights":[-2.0792256E-1,5.0193906E-1,-1.506446E-1,1.1240092E-2,1.5177903E-1],"categories":[],"categories_nodes":[],"categories_segments":[],"categories_sizes":[],"default_left":[0,0,0,0,0],"id":55,"left_children":[1,3,-1,-1,-1],"loss_changes":[1.0929955E2,2.6557922E-1,0E0,0E0,0E0],"parents":[2147483647,0,0,1,1],"right_children":[2,4,-1,-1,-1],"split_conditions":[6.59E2,5.09E2,-1.506446E-1,1.1240092E-2,1.5177903E-1],"split_indices":[26,26,0,0,0],"split_type":[0,0,0,0,0],"sum_hessian":[5.2110864E2,1.5249269E2,3.6861597E2,1.3876365E0,1.5110504E2],"tree_param":{"num_deleted":"0","num_feature":"47","num_nodes":"5","size_leaf_vector":"1"}},{"base_weights":[-1.2596829E-1,-1.5010422E-1,2.0571764E-1,4.9756907E-2,4.9555105E-1,1.1479991E-1,1.7606356E-3,1.5056434E-1,1.22313105E-1,1.5164234E-1,-3.9117512E-1,-2.2249143E-1,7.663712E-2,1.0059742E-2,4.516993E-2,2.159922E-1,-1.3420746E-1,2.8401261E-2,-1.5323186E-1,-4.2335457E-1,1.09027475E-1,1.1751029E-1,-2.8167248E-1,7.382735E-2,-1.2242234E-1,4.209572E-2,-9.069433E-2,1.10911205E-1,-1.5565999E-1,1.8597908E-1,-2.6274445E-2,1.16587035E-1,4.865057E-3,5.1234964E-2,-1.5978035E-1],"categories":[],"categories_nodes":[],"categories_segments":[],"categories_sizes":[],"default_left":[0,0,0,0,0,0,0,0,0,0,0,0,0,0,0,0,0,0,0,0,0,0,0,0,0,0,0,0,0,0,0,0,0,0,0],"id":56,"left_children":[1,-1,3,5,7,9,11,-1,13,15,17,19,21,-1,-1,23,25,-1,-1,27,29,31,33,-1,-1,-1,-1,-1,-1,-1,-1,-1,-1,-1,-1],"loss_changes":[6.953353E1,0E0,1.3408552E1,6.06436E-1,1.8398476E-1,1.5971017E0,1.911581E0,0E0,2.6122555E-3,1.4566637E0,3.89925E-1,1.943901E0,1.2827747E0,0E0,0E0,1.2976263E0,7.290664E-1,0E0,0E0,1.5515816E0,1.2142303E0,2.1164618E0,1.1163392E0,0E0,0E0,0E0,0E0,0E0,0E0,0E0,0E0,0E0,0E0,0E0,0E0],"parents":[2147483647,0,0,2,2,3,3,4,4,5,5,6,6,8,8,9,9,10,10,11,11,12,12,15,15,16,16,19,19,20,20,21,21,22,22],"right_children":[2,-1,4,6,8,10,12,-1,14,16,18,20,22,-1,-1,24,26,-1,-1,28,30,32,34,-1,-1,-1,-1,-1,-1,-1,-1,-1,-1,-1,-1],"split_conditions":[7.01E2,-1.5010422E-1,7.03E2,3E0,7.75E2,2E0,4E0,1.5056434E-1,1E0,3.05E4,5.6E1,2.6E1,7.78E-1,1.0059742E-2,4.516993E-2,1.3E1,5E0,2.8401261E-2,-1.5323186E-1,2E0,4.8E1,6.8E1,5E0,7.382735E-2,-1.2242234E-1,4.209572E-2,-9.069433E-2,1.10911205E-1,-1.5565999E-1,1.8597908E-1,-2.6274445E-2,1.16587035E-1,4.865057E-3,5.1234964E-2,-1.5978035E-1],"split_indices":[26,0,26,17,26,7,17,0,25,20,21,8,29,0,0,0,8,0,0,0,3,3,4,0,0,0,0,0,0,0,0,0,0,0,0],"split_type":[0,0,0,0,0,0,0,0,0,0,0,0,0,0,0,0,0,0,0,0,0,0,0,0,0,0,0,0,0,0,0,0,0,0,0],"sum_hessian":[5.581293E2,2.6195175E2,2.9617755E2,1.9332182E2,1.0285572E2,8.149312E1,1.11828705E2,1.0080147E2,2.0542471E0,7.661474E1,4.878383E0,2.7498964E1,8.432974E1,1.0238492E0,1.030398E0,6.273611E1,1.3878625E1,1.0048338E0,3.8735495E0,1.6951344E1,1.0547621E1,7.629827E1,8.03147E0,6.0427345E1,2.3087656E0,5.3337164E0,8.544909E0,1.5135161E0,1.5437827E1,2.332732E0,8.214889E0,1.9981342E1,5.631693E1,2.9791272E0,5.052343E0],"tree_param":{"num_deleted":"0","num_feature":"47","num_nodes":"35","size_leaf_vector":"1"}},{"base_weights":[3.062231E-1,-1.488393E-1,4.160729E-1,1.5176179E-1,-1.4861253E-1],"categories":[],"categories_nodes":[],"categories_segments":[],"categories_sizes":[],"default_left":[0,0,0,0,0],"id":57,"left_children":[1,-1,3,-1,-1],"loss_changes":[5.962842E1,0E0,4.883098E1,0E0,0E0],"parents":[2147483647,0,0,2,2],"right_children":[2,-1,4,-1,-1],"split_conditions":[6.69E2,-1.488393E-1,7.01E2,1.5176179E-1,-1.4861253E-1],"split_indices":[26,0,26,0,0],"split_type":[0,0,0,0,0],"sum_hessian":[6.731894E2,8.0643654E1,5.925458E2,5.398067E2,5.2739044E1],"tree_param":{"num_deleted":"0","num_feature":"47","num_nodes":"5","size_leaf_vector":"1"}},{"base_weights":[-9.177889E-2,2.6911896E-1,-2.3249333E-1,-4.7218606E-1,1.5085542E-1,-1.4985102E-1,-3.2320388E-2,9.3223285E-3,-1.468374E-1,4.3900058E-2,-4.6224198E-1,-1.8732173E-2,8.925249E-2,-1.4640236E-1,8.594418E-3,-5.4686468E-2,4.4286644E-1,2.9737478E-1,1.7965412E-2,-3.5097227E-2,6.350278E-2,-1.289874E-2,1.6431575E-1,-1.3864687E-1,1.105613E-1,2.9370436E-2,-4.419024E-2],"categories":[],"categories_nodes":[],"categories_segments":[],"categories_sizes":[],"default_left":[0,0,0,0,0,0,0,0,0,0,0,0,0,0,0,0,0,0,0,0,0,0,0,0,0,0,0],"id":58,"left_children":[1,3,5,7,-1,-1,9,-1,-1,11,13,15,17,-1,-1,19,21,23,25,-1,-1,-1,-1,-1,-1,-1,-1],"loss_changes":[3.0141151E1,2.9106358E1,2.2788847E1,3.6686707E-1,0E0,0E0,8.046277E0,0E0,0E0,5.9521896E-1,4.8159266E-1,1.494436E0,1.7953646E0,0E0,0E0,1.4034348E0,3.5526347E-1,1.8405647E0,1.2227937E0,0E0,0E0,0E0,0E0,0E0,0E0,0E0,0E0],"parents":[2147483647,0,0,1,1,2,2,3,3,6,6,9,9,10,10,11,11,12,12,15,15,16,16,17,17,18,18],"right_children":[2,4,6,8,-1,-1,10,-1,-1,12,14,16,18,-1,-1,20,22,24,26,-1,-1,-1,-1,-1,-1,-1,-1],"split_conditions":[6.69E2,6.59E2,7.01E2,5.09E2,1.5085542E-1,-1.4985102E-1,7.03E2,9.3223285E-3,-1.468374E-1,3E0,7.75E2,2E0,4E0,-1.4640236E-1,8.594418E-3,3.05E4,5.6E1,2E0,7.7E-2,-3.5097227E-2,6.350278E-2,-1.289874E-2,1.6431575E-1,-1.3864687E-1,1.105613E-1,2.9370436E-2,-4.419024E-2],"split_indices":[26,26,26,26,0,0,26,0,0,17,26,7,17,0,0,20,21,0,28,0,0,0,0,0,0,0,0],"split_type":[0,0,0,0,0,0,0,0,0,0,0,0,0,0,0,0,0,0,0,0,0,0,0,0,0,0,0],"sum_hessian":[5.9129004E2,1.6561525E2,4.256748E2,3.945612E1,1.2615913E2,1.817473E2,2.439275E2,1.28269E0,3.8173428E1,2.0795688E2,3.597062E1,8.758623E1,1.2037065E2,3.4182327E1,1.7882929E0,8.207488E1,5.511351E0,2.9901587E1,9.046907E1,6.697069E1,1.5104194E1,1.0829873E0,4.4283643E0,2.0908887E0,2.7810698E1,6.1250843E1,2.9218224E1],"tree_param":{"num_deleted":"0","num_feature":"47","num_nodes":"27","size_leaf_vector":"1"}},{"base_weights":[-2.0850156E-1,4.9703884E-1,-1.502746E-1,9.191069E-3,1.5072449E-1],"categories":[],"categories_nodes":[],"categories_segments":[],"categories_sizes":[],"default_left":[0,0,0,0,0],"id":59,"left_children":[1,3,-1,-1,-1],"loss_changes":[8.105001E1,2.7361488E-1,0E0,0E0,0E0],"parents":[2147483647,0,0,1,1],"right_children":[2,4,-1,-1,-1],"split_conditions":[6.59E2,5.09E2,-1.502746E-1,9.191069E-3,1.5072449E-1],"split_indices":[26,26,0,0,0],"split_type":[0,0,0,0,0],"sum_hessian":[3.906492E2,1.1426033E2,2.7638885E2,1.378371E0,1.1288196E2],"tree_param":{"num_deleted":"0","num_feature":"47","num_nodes":"5","size_leaf_vector":"1"}},{"base_weights":[-1.0995264E-1,-1.4973342E-1,1.7199758E-1,4.2365383E-2,4.8994192E-1,6.731155E-2,-6.378423E-2,1.4953963E-1,3.1636167E-2,8.823942E-2,-2.819858E-1,5.159953E-2,-4.5169753E-1,2.004464E-2,1.7730299E-1,-4.8339492E-1,8.981034E-2,3.02007E-1,-2.505381E-1,-1.2596574E-2,-1.7197052E-1,1.609691E-2,-1.1990144E-1,-8.1437536E-2,6.632045E-2,-1.7782342E-1,2.6615497E-2,9.009914E-3,2.4220121E-1,7.404462E-2,-1.3849516E-1],"categories":[],"categories_nodes":[],"categories_segments":[],"categories_sizes":[],"default_left":[0,0,0,0,0,0,0,0,0,0,0,0,0,0,0,0,0,0,0,0,0,0,0,0,0,0,0,0,0,0,0],"id":60,"left_children":[1,-1,3,5,7,9,11,-1,-1,13,15,17,19,21,23,25,-1,27,29,-1,-1,-1,-1,-1,-1,-1,-1,-1,-1,-1,-1],"loss_changes":[5.1123596E1,0E0,1.1126956E1,5.159695E-1,2.0384979E-1,1.1721672E0,1.6920524E0,0E0,0E0,9.004277E-1,1.2114142E0,2.3176322E0,4.0665078E-1,1.2265131E0,1.3251305E0,4.9979913E-1,0E0,2.2650547E0,1.5813855E0,0E0,0E0,0E0,0E0,0E0,0E0,0E0,0E0,0E0,0E0,0E0,0E0],"parents":[2147483647,0,0,2,2,3,3,4,4,5,5,6,6,9,9,10,10,11,11,12,12,13,13,14,14,15,15,17,17,18,18],"right_children":[2,-1,4,6,8,10,12,-1,-1,14,16,18,20,22,24,26,-1,28,30,-1,-1,-1,-1,-1,-1,-1,-1,-1,-1,-1,-1],"split_conditions":[7.01E2,-1.4973342E-1,7.03E2,1.86E2,7.75E2,1E0,6E0,1.4953963E-1,3.1636167E-2,1.07E2,4.1E1,7.6E1,7.6E1,1.02E2,2.9E1,1.06E2,8.981034E-2,4.8E1,3.7E1,-1.2596574E-2,-1.7197052E-1,1.609691E-2,-1.1990144E-1,-8.1437536E-2,6.632045E-2,-1.7782342E-1,2.6615497E-2,9.009914E-3,2.4220121E-1,7.404462E-2,-1.3849516E-1],"split_indices":[26,0,26,21,26,35,1,0,0,21,4,5,3,21,19,3,0,19,19,0,0,0,0,0,0,0,0,0,0,0,0],"split_type":[0,0,0,0,0,0,0,0,0,0,0,0,0,0,0,0,0,0,0,0,0,0,0,0,0,0,0,0,0,0,0],"sum_hessian":[4.6414914E2,1.9467746E2,2.6947168E2,1.9222926E2,7.7242424E1,1.5594629E2,3.6282978E1,7.52772E1,1.965225E0,1.4783618E2,8.110105E0,2.8633118E1,7.649861E0,8.442112E1,6.3415062E1,6.148475E0,1.9616294E0,1.5657135E1,1.2975982E1,2.057936E0,5.5919247E0,7.896926E1,5.4518595E0,5.172671E0,5.824239E1,5.1315956E0,1.0168798E0,1.0867544E1,4.7895904E0,3.8162568E0,9.159725E0],"tree_param":{"num_deleted":"0","num_feature":"47","num_nodes":"31","size_leaf_vector":"1"}},{"base_weights":[3.014453E-1,-1.4804533E-1,4.1001174E-1,1.5113468E-1,-1.47656E-1],"categories":[],"categories_nodes":[],"categories_segments":[],"categories_sizes":[],"default_left":[0,0,0,0,0],"id":61,"left_children":[1,-1,3,-1,-1],"loss_changes":[4.3731087E1,0E0,3.7836617E1,0E0,0E0],"parents":[2147483647,0,0,2,2],"right_children":[2,-1,4,-1,-1],"split_conditions":[6.69E2,-1.4804533E-1,7.01E2,1.5113468E-1,-1.47656E-1],"split_indices":[26,0,26,0,0],"split_type":[0,0,0,0,0],"sum_hessian":[5.0337314E2,6.006058E1,4.4331256E2,4.019747E2,4.1337868E1],"tree_param":{"num_deleted":"0","num_feature":"47","num_nodes":"5","size_leaf_vector":"1"}},{"base_weights":[-8.004129E-2,2.666224E-1,-1.9742146E-1,-4.6230635E-1,1.4992476E-1,-1.4939462E-1,-2.1023247E-2,8.427838E-3,-1.4540392E-1,3.809475E-2,-4.5047465E-1,4.794068E-2,-2.1308674E-1,-1.4483479E-1,7.706437E-3,5.8674864E-2,-2.9563418E-1,-4.7253028E-1,1.2961435E-1,1.27987545E-2,9.7224794E-2,-1.928405E-1,1.2617818E-1,1.01789065E-1,-2.2033277E-1],"categories":[],"categories_nodes":[],"categories_segments":[],"categories_sizes":[],"default_left":[0,0,0,0,0,0,0,0,0,0,0,0,0,0,0,0,0,0,0,0,0,0,0,0,0],"id":62,"left_children":[1,3,5,7,-1,-1,9,-1,-1,11,13,15,17,-1,-1,19,21,23,-1,-1,-1,-1,-1,-1,-1],"loss_changes":[2.0065649E1,2.144418E1,1.9499813E1,3.5121012E-1,0E0,0E0,5.9310503E0,0E0,0E0,5.188698E-1,4.4720936E-1,7.5026894E-1,1.533397E0,0E0,0E0,8.087041E-1,1.8086153E0,1.5550487E0,0E0,0E0,0E0,0E0,0E0,0E0,0E0],"parents":[2147483647,0,0,1,1,2,2,3,3,6,6,9,9,10,10,11,11,12,12,15,15,16,16,17,17],"right_children":[2,4,6,8,-1,-1,10,-1,-1,12,14,16,18,-1,-1,20,22,24,-1,-1,-1,-1,-1,-1,-1],"split_conditions":[6.69E2,6.59E2,7.01E2,5.09E2,1.4992476E-1,-1.4939462E-1,7.03E2,8.427838E-3,-1.4540392E-1,1E0,7.75E2,1E0,1E0,-1.4483479E-1,7.706437E-3,5.9E1,1E1,6E0,1.2961435E-1,1.27987545E-2,9.7224794E-2,-1.928405E-1,1.2617818E-1,1.01789065E-1,-2.2033277E-1],"split_indices":[26,26,26,26,0,0,26,0,0,38,26,44,33,0,0,8,0,4,0,0,0,0,0,0,0],"split_type":[0,0,0,0,0,0,0,0,0,0,0,0,0,0,0,0,0,0,0,0,0,0,0,0,0],"sum_hessian":[4.908236E2,1.2383251E2,3.669911E2,2.9769072E1,9.4063446E1,1.3505357E2,2.3193752E2,1.2877338E0,2.8481339E1,2.0467357E2,2.7263935E1,1.9773193E2,6.9416475E0,2.5518581E1,1.7453549E0,1.9254552E2,5.186407E0,5.141514E0,1.8001336E0,1.826847E2,9.860831E0,3.5622466E0,1.6241608E0,1.1820753E0,3.9594388E0],"tree_param":{"num_deleted":"0","num_feature":"47","num_nodes":"25","size_leaf_vector":"1"}},{"base_weights":[-2.0924093E-1,4.9195504E-1,-1.4992116E-1,7.5042746E-3,1.4974995E-1],"categories":[],"categories_nodes":[],"categories_segments":[],"categories_sizes":[],"default_left":[0,0,0,0,0],"id":63,"left_children":[1,3,-1,-1,-1],"loss_changes":[6.0144188E1,2.7926826E-1,0E0,0E0,0E0],"parents":[2147483647,0,0,1,1],"right_children":[2,4,-1,-1,-1],"split_conditions":[6.59E2,5.09E2,-1.4992116E-1,7.5042746E-3,1.4974995E-1],"split_indices":[26,26,0,0,0],"split_type":[0,0,0,0,0],"sum_hessian":[2.9305923E2,8.564266E1,2.0741658E2,1.3705205E0,8.427214E1],"tree_param":{"num_deleted":"0","num_feature":"47","num_nodes":"5","size_leaf_vector":"1"}},{"base_weights":[-9.321884E-2,-1.4934091E-1,1.4229E-1,3.679435E-2,4.8343095E-1,2.4966145E-2,2.5095212E-1,1.4849293E-1,2.6406804E-2,3.6616597E-2,-2.793E-1,-2.4062328E-1,4.93269E-1,2.6655564E-2,3.860098E-1,-1.4240472E-1,9.034826E-2,2.6612213E-2,-1.1933953E-1,1.9306614E-1,-2.8272325E-2,1.4470668E-2,-9.656428E-2,-1.3643389E-2,1.6665922E-1],"categories":[],"categories_nodes":[],"categories_segments":[],"categories_sizes":[],"default_left":[0,0,0,0,0,0,0,0,0,0,0,0,0,0,0,0,0,0,0,0,0,0,0,0,0],"id":64,"left_children":[1,-1,3,5,7,9,11,-1,-1,13,15,17,19,21,23,-1,-1,-1,-1,-1,-1,-1,-1,-1,-1],"loss_changes":[3.773653E1,0E0,9.002363E0,4.8140478E-1,2.2631645E-1,6.6089237E-1,1.3058181E0,0E0,0E0,6.080514E-1,9.237982E-1,2.404084E-1,6.7899954E-1,1.3228775E0,3.8007057E-1,0E0,0E0,0E0,0E0,0E0,0E0,0E0,0E0,0E0,0E0],"parents":[2147483647,0,0,2,2,3,3,4,4,5,5,6,6,9,9,10,10,11,11,12,12,13,13,14,14],"right_children":[2,-1,4,6,8,10,12,-1,-1,14,16,18,20,22,24,-1,-1,-1,-1,-1,-1,-1,-1,-1,-1],"split_conditions":[7.01E2,-1.4934091E-1,7.03E2,1.56E2,7.75E2,4E0,7E0,1.4849293E-1,2.6406804E-2,1.8E1,1E0,2.35E4,9E0,1.7E1,3.8E1,-1.4240472E-1,9.034826E-2,2.6612213E-2,-1.1933953E-1,1.9306614E-1,-2.8272325E-2,1.4470668E-2,-9.656428E-2,-1.3643389E-2,1.6665922E-1],"split_indices":[26,0,26,3,26,32,17,0,0,6,41,20,6,0,8,0,0,0,0,0,0,0,0,0,0],"split_type":[0,0,0,0,0,0,0,0,0,0,0,0,0,0,0,0,0,0,0,0,0,0,0,0,0],"sum_hessian":[3.9430276E2,1.4466568E2,2.4963708E2,1.9151894E2,5.811815E1,1.8255289E2,8.966049E0,5.622464E1,1.893507E0,1.7666788E2,5.885016E0,2.9627218E0,6.0033274E0,1.7281723E2,3.8506463E0,4.5393186E0,1.3456973E0,1.0978985E0,1.8648233E0,4.704522E0,1.2988057E0,1.6355232E2,9.264904E0,1.2925069E0,2.5581393E0],"tree_param":{"num_deleted":"0","num_feature":"47","num_nodes":"25","size_leaf_vector":"1"}},{"base_weights":[2.9624373E-1,-1.4709443E-1,4.0353516E-1,1.5061462E-1,-1.4657024E-1],"categories":[],"categories_nodes":[],"categories_segments":[],"categories_sizes":[],"default_left":[0,0,0,0,0],"id":65,"left_children":[1,-1,3,-1,-1],"loss_changes":[3.2050457E1,0E0,2.9482952E1,0E0,0E0],"parents":[2147483647,0,0,2,2],"right_children":[2,-1,4,-1,-1],"split_conditions":[6.69E2,-1.4709443E-1,7.01E2,1.5061462E-1,-1.4657024E-1],"split_indices":[26,0,26,0,0],"split_type":[0,0,0,0,0],"sum_hessian":[3.764407E2,4.4756775E1,3.3168393E2,2.9909277E2,3.2591156E1],"tree_param":{"num_deleted":"0","num_feature":"47","num_nodes":"5","size_leaf_vector":"1"}},{"base_weights":[-6.836538E-2,2.6378113E-1,-1.6409764E-1,-4.5004523E-1,1.490006E-1,-1.4888766E-1,-1.3034778E-2,7.5980593E-3,-1.4362875E-1,3.2362796E-2,-4.35711E-1,4.0057115E-2,-2.6921195E-1,-1.4289075E-1,7.630428E-3,2.0520197E-2,2.9858083E-1,9.678352E-2,-1.5457754E-1,2.196866E-3,1.2552929E-1,1.2038341E-1,-1.13756515E-1],"categories":[],"categories_nodes":[],"categories_segments":[],"categories_sizes":[],"default_left":[0,0,0,0,0,0,0,0,0,0,0,0,0,0,0,0,0,0,0,0,0,0,0],"id":66,"left_children":[1,3,5,7,-1,-1,9,-1,-1,11,13,15,17,-1,-1,19,21,-1,-1,-1,-1,-1,-1],"loss_changes":[1.330145E1,1.5795847E1,1.6267027E1,3.338585E-1,0E0,0E0,4.311259E0,0E0,0E0,4.8218852E-1,4.1997576E-1,9.988309E-1,9.2107886E-1,0E0,0E0,9.740315E-1,1.1201032E0,0E0,0E0,0E0,0E0,0E0,0E0],"parents":[2147483647,0,0,1,1,2,2,3,3,6,6,9,9,10,10,11,11,12,12,15,15,16,16],"right_children":[2,4,6,8,-1,-1,10,-1,-1,12,14,16,18,-1,-1,20,22,-1,-1,-1,-1,-1,-1],"split_conditions":[6.69E2,6.59E2,7.01E2,5.09E2,1.490006E-1,-1.4888766E-1,7.03E2,7.5980593E-3,-1.4362875E-1,1.8E1,7.75E2,1.7E1,1E0,-1.4289075E-1,7.630428E-3,1.1E1,4.6E1,9.678352E-2,-1.5457754E-1,2.196866E-3,1.2552929E-1,1.2038341E-1,-1.13756515E-1],"split_indices":[26,26,26,26,0,0,26,0,0,6,26,0,24,0,0,6,16,0,0,0,0,0,0],"split_type":[0,0,0,0,0,0,0,0,0,0,0,0,0,0,0,0,0,0,0,0,0,0,0],"sum_hessian":[4.159609E2,9.267305E1,3.2328784E2,2.2567787E1,7.010526E1,1.0034313E2,2.2294472E2,1.2923802E0,2.1275406E1,2.0215561E2,2.0789108E1,1.9797177E2,4.183839E0,1.907702E1,1.7120862E0,1.8506555E2,1.2906231E1,1.1372328E0,3.0466058E0,1.8011032E2,4.955227E0,1.1562236E1,1.3439949E0],"tree_param":{"num_deleted":"0","num_feature":"47","num_nodes":"23","size_leaf_vector":"1"}},{"base_weights":[-2.1008378E-1,4.8627526E-1,-1.4955509E-1,6.119558E-3,1.487694E-1],"categories":[],"categories_nodes":[],"categories_segments":[],"categories_sizes":[],"default_left":[0,0,0,0,0],"id":67,"left_children":[1,3,-1,-1,-1],"loss_changes":[4.466085E1,2.8252316E-1,0E0,0E0,0E0],"parents":[2147483647,0,0,1,1],"right_children":[2,4,-1,-1,-1],"split_conditions":[6.59E2,5.09E2,-1.4955509E-1,6.119558E-3,1.487694E-1],"split_indices":[26,26,0,0,0],"split_type":[0,0,0,0,0],"sum_hessian":[2.2014891E2,6.427793E1,1.5587099E2,1.3639302E0,6.2914005E1],"tree_param":{"num_deleted":"0","num_feature":"47","num_nodes":"5","size_leaf_vector":"1"}},{"base_weights":[-7.660789E-2,-1.4889267E-1,1.1754039E-1,3.2854438E-2,4.7567335E-1,5.980763E-3,1.3472527E-1,1.4733891E-1,2.199557E-2,4.8942924E-2,-1.7791623E-1,-2.4373613E-1,2.4982317E-1,1.5690621E-2,3.4143353E-1,1.7756629E-1,-2.9727167E-1,-3.4779296E-3,-1.4425783E-1,1.06933765E-1,5.455845E-1,3.1686943E-2,-2.5816148E-2,-7.89854E-2,1.629263E-1,1.9202098E-1,-1.0237437E-1,-1.287859E-1,2.4874685E-2,-7.833394E-2,9.111566E-2,-5.3557757E-2,7.9002894E-2,2.3652929E-1,3.13822E-2],"categories":[],"categories_nodes":[],"categories_segments":[],"categories_sizes":[],"default_left":[0,0,0,0,0,0,0,0,0,0,0,0,0,0,0,0,0,0,0,0,0,0,0,0,0,0,0,0,0,0,0,0,0,0,0],"id":68,"left_children":[1,-1,3,5,7,9,11,-1,-1,13,15,17,19,21,23,25,27,29,-1,31,33,-1,-1,-1,-1,-1,-1,-1,-1,-1,-1,-1,-1,-1,-1],"loss_changes":[2.796719E1,0E0,7.111248E0,5.224168E-1,2.430067E-1,1.2117648E0,1.7966557E0,0E0,0E0,1.2028129E0,1.2854723E0,5.5656254E-1,1.253824E0,1.0392877E0,1.6834396E0,2.1209753E0,1.1460164E0,5.44234E-1,0E0,1.0372558E0,9.745369E-1,0E0,0E0,0E0,0E0,0E0,0E0,0E0,0E0,0E0,0E0,0E0,0E0,0E0,0E0],"parents":[2147483647,0,0,2,2,3,3,4,4,5,5,6,6,9,9,10,10,11,11,12,12,13,13,14,14,15,15,16,16,17,17,19,19,20,20],"right_children":[2,-1,4,6,8,10,12,-1,-1,14,16,18,20,22,24,26,28,30,-1,32,34,-1,-1,-1,-1,-1,-1,-1,-1,-1,-1,-1,-1,-1,-1],"split_conditions":[7.01E2,-1.4889267E-1,7.03E2,3E0,7.75E2,4E0,1.89E4,1.4733891E-1,2.199557E-2,3.5E1,6.5E1,1E1,1E0,3E0,5.3E1,3.3E1,5.5E1,1E0,-1.4425783E-1,1E0,8E-3,3.1686943E-2,-2.5816148E-2,-7.89854E-2,1.629263E-1,1.9202098E-1,-1.0237437E-1,-1.287859E-1,2.4874685E-2,-7.833394E-2,9.111566E-2,-5.3557757E-2,7.9002894E-2,2.3652929E-1,3.13822E-2],"split_indices":[26,0,26,2,26,16,20,0,0,8,3,9,7,17,21,19,16,18,0,18,28,0,0,0,0,0,0,0,0,0,0,0,0,0,0],"split_type":[0,0,0,0,0,0,0,0,0,0,0,0,0,0,0,0,0,0,0,0,0,0,0,0,0,0,0,0,0,0,0,0,0,0,0],"sum_hessian":[3.415062E2,1.0751936E2,2.3398685E2,1.9012148E2,4.386536E1,1.5127391E2,3.8847572E1,4.2030144E1,1.8352154E0,1.2322082E2,2.805309E1,8.79861E0,3.0048962E1,1.1158835E2,1.1632471E1,6.928843E0,2.1124245E1,4.8744173E0,3.9241927E0,2.1178617E1,8.870344E0,5.9212208E1,5.237614E1,2.8325686E0,8.799902E0,3.539655E0,3.3891883E0,1.5583837E1,5.5404086E0,2.732652E0,2.1417654E0,7.446586E0,1.3732032E1,5.212113E0,3.6582315E0],"tree_param":{"num_deleted":"0","num_feature":"47","num_nodes":"35","size_leaf_vector":"1"}},{"base_weights":[2.9047856E-1,-1.4591488E-1,3.964738E-1,1.501535E-1,-1.4531417E-1],"categories":[],"categories_nodes":[],"categories_segments":[],"categories_sizes":[],"default_left":[0,0,0,0,0],"id":69,"left_children":[1,-1,3,-1,-1],"loss_changes":[2.3469858E1,0E0,2.3088268E1,0E0,0E0],"parents":[2147483647,0,0,2,2],"right_children":[2,-1,4,-1,-1],"split_conditions":[6.69E2,-1.4591488E-1,7.01E2,1.501535E-1,-1.4531417E-1],"split_indices":[26,0,26,0,0],"split_type":[0,0,0,0,0],"sum_hessian":[2.8168152E2,3.3387653E1,2.4829387E2,2.2245184E2,2.5842026E1],"tree_param":{"num_deleted":"0","num_feature":"47","num_nodes":"5","size_leaf_vector":"1"}},{"base_weights":[-5.75108E-2,2.6037866E-1,-1.3436362E-1,-4.3492645E-1,1.480039E-1,-1.4828694E-1,-7.946627E-3,6.8322453E-3,-1.414029E-1,2.6843006E-2,-4.178174E-1,5.2102584E-2,-7.084911E-2,-1.4045693E-1,7.433554E-3,9.912799E-3,2.2836079E-1,2.8796485E-1,-1.8578662E-1,1.26540745E-2,-8.51357E-2,-3.7976786E-2,1.025338E-1,1.6511388E-2,1.505231E-1,-1.492028E-2,-1.4359334E-1],"categories":[],"categories_nodes":[],"categories_segments":[],"categories_sizes":[],"default_left":[0,0,0,0,0,0,0,0,0,0,0,0,0,0,0,0,0,0,0,0,0,0,0,0,0,0,0],"id":70,"left_children":[1,3,5,7,-1,-1,9,-1,-1,11,13,15,17,-1,-1,19,21,23,25,-1,-1,-1,-1,-1,-1,-1,-1],"loss_changes":[8.835942E0,1.1630564E1,1.3226126E1,3.1440306E-1,0E0,0E0,3.0940952E0,0E0,0E0,4.977823E-1,3.9006805E-1,1.1850705E0,1.7674372E0,0E0,0E0,1.2427878E0,1.282882E0,4.9397665E-1,1.2545522E0,0E0,0E0,0E0,0E0,0E0,0E0,0E0,0E0],"parents":[2147483647,0,0,1,1,2,2,3,3,6,6,9,9,10,10,11,11,12,12,15,15,16,16,17,17,18,18],"right_children":[2,4,6,8,-1,-1,10,-1,-1,12,14,16,18,-1,-1,20,22,24,26,-1,-1,-1,-1,-1,-1,-1,-1],"split_conditions":[6.69E2,6.59E2,7.01E2,5.09E2,1.480039E-1,-1.4828694E-1,7.03E2,6.8322453E-3,-1.414029E-1,3E0,7.75E2,4E0,1.89E4,-1.4045693E-1,7.433554E-3,3.5E1,6.5E1,1E1,1E0,1.26540745E-2,-8.51357E-2,-3.7976786E-2,1.025338E-1,1.6511388E-2,1.505231E-1,-1.492028E-2,-1.4359334E-1],"split_indices":[26,26,26,26,0,0,26,0,0,2,26,16,20,0,0,8,3,9,7,0,0,0,0,0,0,0,0],"split_type":[0,0,0,0,0,0,0,0,0,0,0,0,0,0,0,0,0,0,0,0,0,0,0,0,0,0,0],"sum_hessian":[3.592417E2,6.947624E1,2.8976544E2,1.7218817E1,5.2257423E1,7.4563416E1,2.1520204E2,1.2966402E0,1.5922176E1,1.9922632E2,1.5975725E1,1.5866743E2,4.0558876E1,1.429138E1,1.6843449E0,1.2887556E2,2.979187E1,9.474818E0,3.108406E1,1.1688975E2,1.1985816E1,7.1861763E0,2.2605694E1,5.1361146E0,4.3387036E0,2.2022799E1,9.061262E0],"tree_param":{"num_deleted":"0","num_feature":"47","num_nodes":"27","size_leaf_vector":"1"}},{"base_weights":[-2.1091089E-1,4.7958285E-1,-1.4914699E-1,4.9860133E-3,1.4770152E-1],"categories":[],"categories_nodes":[],"categories_segments":[],"categories_sizes":[],"default_left":[0,0,0,0,0],"id":71,"left_children":[1,3,-1,-1,-1],"loss_changes":[3.318532E1,2.8330517E-1,0E0,0E0,0E0],"parents":[2147483647,0,0,1,1],"right_children":[2,4,-1,-1,-1],"split_conditions":[6.59E2,5.09E2,-1.4914699E-1,4.9860133E-3,1.4770152E-1],"split_indices":[26,26,0,0,0],"split_type":[0,0,0,0,0],"sum_hessian":[1.6569238E2,4.8360283E1,1.1733211E2,1.3584406E0,4.7001842E1],"tree_param":{"num_deleted":"0","num_feature":"47","num_nodes":"5","size_leaf_vector":"1"}},{"base_weights":[-6.1470263E-2,-1.4835092E-1,9.6750274E-2,2.9158894E-2,4.6620703E-1,1.4426743E-2,2.0046747E-1,1.4599115E-1,1.829673E-2,3.4959804E-2,-1.6750549E-1,3.1040102E-1,-1.2608583E-1,2.1158803E-2,3.9016414E-1,-4.7191933E-1,1.4345771E-1,2.1501993E-1,1.2929711E-1,1.572123E-2,-3.5927713E-2,-1.0537734E-1,2.0134439E-1,-4.198298E-2,-1.5868509E-1,-4.3518078E-2,1.6024557E-1,-8.628689E-2,9.135058E-2],"categories":[],"categories_nodes":[],"categories_segments":[],"categories_sizes":[],"default_left":[0,0,0,0,0,0,0,0,0,0,0,0,0,0,0,0,0,0,0,0,0,0,0,0,0,0,0,0,0],"id":72,"left_children":[1,-1,3,5,7,9,11,-1,-1,13,15,17,-1,19,21,23,25,-1,27,-1,-1,-1,-1,-1,-1,-1,-1,-1,-1],"loss_changes":[2.0730808E1,0E0,5.528464E0,4.732737E-1,2.5391102E-1,6.5888524E-1,1.1447437E0,0E0,0E0,7.6584715E-1,1.7622535E0,8.788527E-1,0E0,6.8020827E-1,1.4541662E0,1.0165501E-1,1.1621219E0,0E0,8.437647E-1,0E0,0E0,0E0,0E0,0E0,0E0,0E0,0E0,0E0,0E0],"parents":[2147483647,0,0,2,2,3,3,4,4,5,5,6,6,9,9,10,10,11,11,13,13,14,14,15,15,16,16,18,18],"right_children":[2,-1,4,6,8,10,12,-1,-1,14,16,18,-1,20,22,24,26,-1,28,-1,-1,-1,-1,-1,-1,-1,-1,-1,-1],"split_conditions":[7.01E2,-1.4835092E-1,7.03E2,1.4E2,7.75E2,1.12E2,1E0,1.4599115E-1,1.829673E-2,1.07E2,1E0,3.6E1,-1.2608583E-1,1.82E2,2.63E-1,3E0,3E0,2.1501993E-1,3E0,1.572123E-2,-3.5927713E-2,-1.0537734E-1,2.0134439E-1,-4.198298E-2,-1.5868509E-1,-4.3518078E-2,1.6024557E-1,-8.628689E-2,9.135058E-2],"split_indices":[26,0,26,3,26,3,42,0,0,3,9,19,0,21,29,4,6,0,32,0,0,0,0,0,0,0,0,0,0],"split_type":[0,0,0,0,0,0,0,0,0,0,0,0,0,0,0,0,0,0,0,0,0,0,0,0,0,0,0,0,0],"sum_hessian":[3.008764E2,7.994635E1,2.2093007E2,1.8767435E2,3.3255726E1,1.7381119E2,1.3863156E1,3.1468246E1,1.7874806E0,1.5691E2,1.6901186E1,1.2202153E1,1.6610031E0,1.5206142E2,4.8485804E0,8.278975E0,8.622211E0,2.8500617E0,9.352091E0,1.2497845E2,2.7082975E1,1.2637826E0,3.5847979E0,1.7201029E0,6.5588717E0,5.3212852E0,3.3009264E0,2.5773501E0,6.774741E0],"tree_param":{"num_deleted":"0","num_feature":"47","num_nodes":"29","size_leaf_vector":"1"}},{"base_weights":[2.8402898E-1,-1.4442492E-1,3.886893E-1,1.4970954E-1,-1.4384525E-1],"categories":[],"categories_nodes":[],"categories_segments":[],"categories_sizes":[],"default_left":[0,0,0,0,0],"id":73,"left_children":[1,-1,3,-1,-1],"loss_changes":[1.7170424E1,0E0,1.815787E1,0E0,0E0],"parents":[2147483647,0,0,2,2],"right_children":[2,-1,4,-1,-1],"split_conditions":[6.69E2,-1.4442492E-1,7.01E2,1.4970954E-1,-1.4384525E-1],"split_indices":[26,0,26,0,0],"split_type":[0,0,0,0,0],"sum_hessian":[2.1099516E2,2.4946472E1,1.8604869E2,1.6544612E2,2.0602558E1],"tree_param":{"num_deleted":"0","num_feature":"47","num_nodes":"5","size_leaf_vector":"1"}},{"base_weights":[-4.7367714E-2,2.561767E-1,-1.0832675E-1,-4.165631E-1,1.4685448E-1,-1.4754291E-1,-4.1910266E-3,6.129131E-3,-1.3861085E-1,2.2590946E-2,-3.965362E-1,3.65012E-2,-1.4428608E-1,-1.374163E-1,7.145182E-3,1.5863284E-2,2.1240534E-1,-2.5470454E-1,1.3244848E-1,8.810311E-3,-1.0439571E-1,1.4864846E-1,-2.6904894E-2,-2.0768766E-1,-2.2415018E-2],"categories":[],"categories_nodes":[],"categories_segments":[],"categories_sizes":[],"default_left":[0,0,0,0,0,0,0,0,0,0,0,0,0,0,0,0,0,0,0,0,0,0,0,0,0],"id":74,"left_children":[1,3,5,7,-1,-1,9,-1,-1,11,13,15,17,-1,-1,19,21,23,-1,-1,-1,-1,-1,-1,-1],"loss_changes":[5.8841643E0,8.559413E0,1.0551385E1,2.9256368E-1,0E0,0E0,2.203418E0,0E0,0E0,4.612695E-1,3.5739255E-1,6.578016E-1,1.1031524E0,0E0,0E0,8.164505E-1,1.6729952E0,1.0132425E0,0E0,0E0,0E0,0E0,0E0,0E0,0E0],"parents":[2147483647,0,0,1,1,2,2,3,3,6,6,9,9,10,10,11,11,12,12,15,15,16,16,17,17],"right_children":[2,4,6,8,-1,-1,10,-1,-1,12,14,16,18,-1,-1,20,22,24,-1,-1,-1,-1,-1,-1,-1],"split_conditions":[6.69E2,6.59E2,7.01E2,5.09E2,1.4685448E-1,-1.4754291E-1,7.03E2,6.129131E-3,-1.3861085E-1,1.4E2,7.75E2,1.12E2,1E0,-1.374163E-1,7.145182E-3,1.07E2,1E0,3.6E1,1.3244848E-1,8.810311E-3,-1.0439571E-1,1.4864846E-1,-2.6904894E-2,-2.0768766E-1,-2.2415018E-2],"split_indices":[26,26,26,26,0,0,26,0,0,3,26,3,42,0,0,3,9,19,0,0,0,0,0,0,0],"split_type":[0,0,0,0,0,0,0,0,0,0,0,0,0,0,0,0,0,0,0,0,0,0,0,0,0],"sum_hessian":[3.1549832E2,5.2227913E1,2.6327042E2,1.3247801E1,3.898011E1,5.5428932E1,2.0784149E2,1.3005269E0,1.1947274E1,1.9544275E2,1.2398746E1,1.8112602E2,1.4316727E1,1.0737622E1,1.6611236E0,1.6308258E2,1.8043446E1,1.2521617E1,1.7951095E0,1.5813269E2,4.949879E0,8.98412E0,9.059325E0,2.8197916E0,9.701825E0],"tree_param":{"num_deleted":"0","num_feature":"47","num_nodes":"25","size_leaf_vector":"1"}},{"base_weights":[-2.1159239E-1,4.714439E-1,-1.4866537E-1,4.060719E-3,1.4646412E-1],"categories":[],"categories_nodes":[],"categories_segments":[],"categories_sizes":[],"default_left":[0,0,0,0,